const mreza = {"sizes":[200,800,1],"layers":[{"0":{},"1":{},"2":{},"3":{},"4":{},"5":{},"6":{},"7":{},"8":{},"9":{},"10":{},"11":{},"12":{},"13":{},"14":{},"15":{},"16":{},"17":{},"18":{},"19":{},"20":{},"21":{},"22":{},"23":{},"24":{},"25":{},"26":{},"27":{},"28":{},"29":{},"30":{},"31":{},"32":{},"33":{},"34":{},"35":{},"36":{},"37":{},"38":{},"39":{},"40":{},"41":{},"42":{},"43":{},"44":{},"45":{},"46":{},"47":{},"48":{},"49":{},"50":{},"51":{},"52":{},"53":{},"54":{},"55":{},"56":{},"57":{},"58":{},"59":{},"60":{},"61":{},"62":{},"63":{},"64":{},"65":{},"66":{},"67":{},"68":{},"69":{},"70":{},"71":{},"72":{},"73":{},"74":{},"75":{},"76":{},"77":{},"78":{},"79":{},"80":{},"81":{},"82":{},"83":{},"84":{},"85":{},"86":{},"87":{},"88":{},"89":{},"90":{},"91":{},"92":{},"93":{},"94":{},"95":{},"96":{},"97":{},"98":{},"99":{},"100":{},"101":{},"102":{},"103":{},"104":{},"105":{},"106":{},"107":{},"108":{},"109":{},"110":{},"111":{},"112":{},"113":{},"114":{},"115":{},"116":{},"117":{},"118":{},"119":{},"120":{},"121":{},"122":{},"123":{},"124":{},"125":{},"126":{},"127":{},"128":{},"129":{},"130":{},"131":{},"132":{},"133":{},"134":{},"135":{},"136":{},"137":{},"138":{},"139":{},"140":{},"141":{},"142":{},"143":{},"144":{},"145":{},"146":{},"147":{},"148":{},"149":{},"150":{},"151":{},"152":{},"153":{},"154":{},"155":{},"156":{},"157":{},"158":{},"159":{},"160":{},"161":{},"162":{},"163":{},"164":{},"165":{},"166":{},"167":{},"168":{},"169":{},"170":{},"171":{},"172":{},"173":{},"174":{},"175":{},"176":{},"177":{},"178":{},"179":{},"180":{},"181":{},"182":{},"183":{},"184":{},"185":{},"186":{},"187":{},"188":{},"189":{},"190":{},"191":{},"192":{},"193":{},"194":{},"195":{},"196":{},"197":{},"198":{},"199":{}},{"0":{"bias":14.21474552154541,"weights":{"0":0.0386773943901062,"1":0.18279162049293518,"2":-0.06826410442590714,"3":-0.020956415683031082,"4":-0.030354712158441544,"5":0.09835387021303177,"6":0.16925299167633057,"7":0.00969733763486147,"8":0.18882106244564056,"9":0.04999280720949173,"10":-0.4604703485965729,"11":-0.6614637970924377,"12":-0.47234269976615906,"13":-0.14007903635501862,"14":0.025317920371890068,"15":-0.18606625497341156,"16":-0.5403648018836975,"17":-0.8316871523857117,"18":-0.674824059009552,"19":-0.43516457080841064,"20":-0.7308690547943115,"21":-0.7743824124336243,"22":-0.7846314311027527,"23":-0.7932103872299194,"24":-0.6815744042396545,"25":-0.7385953664779663,"26":-1.2319459915161133,"27":-1.2143206596374512,"28":-1.3490875959396362,"29":-0.904549777507782,"30":-0.6272454261779785,"31":-0.9599778056144714,"32":-1.1821645498275757,"33":-1.1419906616210938,"34":-0.9670679569244385,"35":-0.6928894519805908,"36":-0.9825301766395569,"37":-1.0892300605773926,"38":-1.0026332139968872,"39":-0.7568928003311157,"40":-0.6771683692932129,"41":-0.8471646904945374,"42":-1.2642263174057007,"43":-1.1577017307281494,"44":-0.6793004870414734,"45":-0.5502638220787048,"46":-0.7337062358856201,"47":-0.4637713134288788,"48":-0.6006020307540894,"49":-0.6356795430183411,"50":-0.5193321704864502,"51":-0.9694854617118835,"52":-0.9825857281684875,"53":-1.2543202638626099,"54":-0.6027328968048096,"55":-0.7295600771903992,"56":-0.5473655462265015,"57":-0.9413954615592957,"58":-0.7697629332542419,"59":-0.5419110059738159,"60":0.0108334980905056,"61":-0.7838171720504761,"62":-0.8958792090415955,"63":-1.336378812789917,"64":-0.41737499833106995,"65":-0.08420171588659286,"66":-0.29112446308135986,"67":-0.2810209393501282,"68":-0.4235228896141052,"69":-0.23207563161849976,"70":0.1132979765534401,"71":-0.5292844772338867,"72":-1.1022228002548218,"73":-1.447440266609192,"74":-0.8244888782501221,"75":-0.3997165858745575,"76":-0.36826008558273315,"77":-0.32310184836387634,"78":-0.4273478388786316,"79":-0.3237636983394623,"80":-0.31468361616134644,"81":-0.3116164803504944,"82":-1.0864194631576538,"83":-1.1076810359954834,"84":-0.9678881764411926,"85":-0.41590943932533264,"86":-0.29691281914711,"87":-0.48902174830436707,"88":-0.596140444278717,"89":-0.2041483223438263,"90":0.39511409401893616,"91":-0.18326199054718018,"92":-1.3011970520019531,"93":-1.3103302717208862,"94":-0.7104706764221191,"95":-0.2499719113111496,"96":-0.14985965192317963,"97":-0.47771087288856506,"98":-0.23961040377616882,"99":-0.14782942831516266,"100":0.21167214214801788,"101":-0.37433716654777527,"102":-1.1542307138442993,"103":-1.300599455833435,"104":-0.5419184565544128,"105":0.006926946807652712,"106":-0.012873979285359383,"107":0.04527898505330086,"108":0.0764051079750061,"109":0.40340858697891235,"110":0.16651982069015503,"111":-0.07923921942710876,"112":-1.1113629341125488,"113":-1.4744133949279785,"114":-0.7612149119377136,"115":0.09732204675674438,"116":-0.00416244100779295,"117":0.14762437343597412,"118":-0.32974302768707275,"119":0.17745311558246613,"120":0.3705247938632965,"121":0.32591313123703003,"122":-0.2841123044490814,"123":-0.7192893028259277,"124":-0.23076127469539642,"125":0.33704674243927,"126":0.5231527090072632,"127":0.16265468299388885,"128":0.1098301112651825,"129":0.6447612643241882,"130":0.9996085166931152,"131":0.21979071199893951,"132":-0.4456898868083954,"133":-0.376352995634079,"134":-0.09686609357595444,"135":0.485752135515213,"136":0.5232352018356323,"137":0.43498337268829346,"138":0.3330410122871399,"139":0.5984869003295898,"140":-0.17573964595794678,"141":-0.04240552708506584,"142":-0.3760305345058441,"143":-0.572868287563324,"144":-0.2934240400791168,"145":0.6950182318687439,"146":0.3211958706378937,"147":0.3603495955467224,"148":0.26671966910362244,"149":0.6098222732543945,"150":0.3573075234889984,"151":-0.7265805006027222,"152":-2.2143499851226807,"153":-2.5331990718841553,"154":-1.8771369457244873,"155":-0.8606462478637695,"156":-0.20786523818969727,"157":-0.8429384827613831,"158":-0.2699258625507355,"159":0.8027950525283813,"160":-12.802582740783691,"161":-0.8739995360374451,"162":-2.0886342525482178,"163":0.12444902956485748,"164":-3.496112823486328,"165":-1.670694351196289,"166":-0.18683698773384094,"167":-1.793352484703064,"168":-0.879051148891449,"169":-1.7995578050613403,"170":10.94330883026123,"171":-6.871551036834717,"172":-0.8838622570037842,"173":-6.703679084777832,"174":6.649233341217041,"175":-9.068316459655762,"176":-11.191838264465332,"177":5.583397388458252,"178":-1.3885160684585571,"179":-8.115577697753906,"180":-7.8126220703125,"181":-4.135053634643555,"182":0.49175548553466797,"183":-4.526865482330322,"184":-6.743895053863525,"185":-16.887039184570312,"186":-6.275692462921143,"187":-5.671719551086426,"188":-9.681252479553223,"189":-13.721748352050781,"190":16.152381896972656,"191":-21.141874313354492,"192":-7.87502384185791,"193":-4.524956703186035,"194":-2.9887287616729736,"195":5.535112380981445,"196":-1.8809775114059448,"197":-3.199711799621582,"198":-5.305501461029053,"199":1.296022653579712}},"1":{"bias":-5.317377090454102,"weights":{"0":-0.15864267945289612,"1":-0.19258788228034973,"2":0.19431161880493164,"3":0.12625791132450104,"4":-0.02442815899848938,"5":-0.014206224121153355,"6":0.008535408414900303,"7":-0.17031578719615936,"8":-0.09740935266017914,"9":-0.1802089661359787,"10":-0.2752169966697693,"11":-2.1392507553100586,"12":-0.43674251437187195,"13":0.26803070306777954,"14":-0.3949972987174988,"15":-0.33683356642723083,"16":0.3979879915714264,"17":0.8188886046409607,"18":-0.07839665561914444,"19":-0.2440396547317505,"20":5.09609317779541,"21":1.0929698944091797,"22":-1.1077927350997925,"23":0.32131263613700867,"24":-1.395329475402832,"25":2.023688793182373,"26":3.1685378551483154,"27":5.390083312988281,"28":3.044423818588257,"29":7.503756523132324,"30":10.11349105834961,"31":4.975707530975342,"32":1.0551503896713257,"33":-1.9868136644363403,"34":1.8833231925964355,"35":4.90559196472168,"36":7.0957794189453125,"37":8.778903007507324,"38":8.944173812866211,"39":9.178863525390625,"40":9.688911437988281,"41":11.138866424560547,"42":4.127218246459961,"43":-0.6012724041938782,"44":4.234708309173584,"45":6.47676420211792,"46":9.702829360961914,"47":12.205230712890625,"48":11.753500938415527,"49":12.294403076171875,"50":4.4206318855285645,"51":4.217418670654297,"52":3.19020414352417,"53":-2.2028660774230957,"54":-0.16869428753852844,"55":2.147827386856079,"56":2.3824896812438965,"57":3.2224819660186768,"58":4.485962867736816,"59":5.393326759338379,"60":1.6652981042861938,"61":0.3627645671367645,"62":1.5952928066253662,"63":-1.2622612714767456,"64":0.39488324522972107,"65":0.11656463146209717,"66":-0.77842777967453,"67":-1.220914602279663,"68":-1.3843001127243042,"69":0.008842232637107372,"70":0.2881258428096771,"71":0.8753562569618225,"72":0.2522357404232025,"73":-0.049459006637334824,"74":-1.2139015197753906,"75":-1.5440223217010498,"76":-0.8161185383796692,"77":-1.9645280838012695,"78":-1.014255166053772,"79":-1.9923080205917358,"80":-1.6039069890975952,"81":0.7911516427993774,"82":2.485471487045288,"83":1.1753380298614502,"84":0.002554748672991991,"85":-0.6080682277679443,"86":0.3906668424606323,"87":-1.5869145393371582,"88":-0.6923074126243591,"89":0.22823800146579742,"90":-2.1099019050598145,"91":-1.5235743522644043,"92":2.2470507621765137,"93":1.8995941877365112,"94":-0.016531189903616905,"95":0.3749500811100006,"96":-1.1790982484817505,"97":-1.25845205783844,"98":-1.4400893449783325,"99":-1.6717381477355957,"100":-2.7095072269439697,"101":-0.33923134207725525,"102":0.8696888089179993,"103":1.0050348043441772,"104":0.5252790451049805,"105":0.11288861930370331,"106":-0.7475004196166992,"107":-0.07278209179639816,"108":0.12006103247404099,"109":-1.8516943454742432,"110":-2.496429681777954,"111":-1.7070611715316772,"112":3.5025155544281006,"113":2.5851197242736816,"114":-0.27428412437438965,"115":-0.5379396080970764,"116":-1.329899787902832,"117":-0.2786934971809387,"118":-0.6819702982902527,"119":-3.9495997428894043,"120":-2.9286906719207764,"121":-0.3920687139034271,"122":1.0474460124969482,"123":0.13411037623882294,"124":-1.718374252319336,"125":0.6980272531509399,"126":-1.1216044425964355,"127":-3.0485892295837402,"128":-0.38151460886001587,"129":-4.197271823883057,"130":-3.734976053237915,"131":1.7421385049819946,"132":0.018488554283976555,"133":0.6920444965362549,"134":-0.7612866163253784,"135":-2.0477406978607178,"136":-2.327725648880005,"137":-2.2909939289093018,"138":-2.306741952896118,"139":-5.037665367126465,"140":-1.2467273473739624,"141":-3.0549259185791016,"142":-1.9871150255203247,"143":-1.0243005752563477,"144":-0.36239898204803467,"145":-0.5948349237442017,"146":-1.6431553363800049,"147":-0.6692667603492737,"148":-1.9452342987060547,"149":-2.9871087074279785,"150":-1.407090425491333,"151":-0.24249765276908875,"152":-1.0613971948623657,"153":0.028087494894862175,"154":-0.6358386874198914,"155":-0.5886919498443604,"156":-3.314213514328003,"157":-1.5069730281829834,"158":-0.5772743821144104,"159":-1.4794737100601196,"160":-0.9530228972434998,"161":-7.437271595001221,"162":-0.3189542591571808,"163":-1.1290394067764282,"164":0.25541752576828003,"165":-0.4717918932437897,"166":-4.523646354675293,"167":-2.7199549674987793,"168":-1.7339504957199097,"169":-0.21928003430366516,"170":0.10773742944002151,"171":-5.215292930603027,"172":-1.625070333480835,"173":-5.213098526000977,"174":-3.5291361808776855,"175":-2.222790241241455,"176":-1.0837817192077637,"177":0.005951369646936655,"178":-2.286207914352417,"179":0.9130977392196655,"180":-3.2536113262176514,"181":-3.7076194286346436,"182":-0.5786193013191223,"183":-1.0724828243255615,"184":-2.2135136127471924,"185":0.775762677192688,"186":-0.8984772562980652,"187":-4.044623851776123,"188":-0.9463252425193787,"189":-2.2482409477233887,"190":-4.415595531463623,"191":-4.856227874755859,"192":4.964967727661133,"193":-1.1873422861099243,"194":-3.741619825363159,"195":-0.16076679527759552,"196":1.1867523193359375,"197":0.058920200914144516,"198":-3.519638776779175,"199":-1.2437070608139038}},"2":{"bias":0.42912793159484863,"weights":{"0":0.18489959836006165,"1":-0.01926814392209053,"2":-0.0900505855679512,"3":-0.16734784841537476,"4":-0.11211735755205154,"5":-0.17582273483276367,"6":0.15696772933006287,"7":-0.025811081752181053,"8":-0.09320296347141266,"9":-0.19793003797531128,"10":-0.19669993221759796,"11":-0.01031343825161457,"12":-0.0910487100481987,"13":-0.03494803234934807,"14":0.1837998628616333,"15":0.1057061105966568,"16":-0.030470632016658783,"17":-0.14021816849708557,"18":0.10613593459129333,"19":0.10262563824653625,"20":-0.0739513486623764,"21":-0.08443117886781693,"22":-0.018348287791013718,"23":-0.04313180223107338,"24":0.14525586366653442,"25":0.026624109596014023,"26":-0.15027554333209991,"27":0.15614767372608185,"28":0.13547585904598236,"29":-0.17353954911231995,"30":-0.1083424836397171,"31":-0.014413946308195591,"32":0.054131463170051575,"33":-0.07648404687643051,"34":0.10061418265104294,"35":0.251987099647522,"36":-0.018259795382618904,"37":0.27047598361968994,"38":-0.12113121151924133,"39":0.1607799232006073,"40":-0.17545422911643982,"41":0.050011198967695236,"42":-0.13895295560359955,"43":0.003730138996616006,"44":0.16890287399291992,"45":0.2406451255083084,"46":0.009493865072727203,"47":0.306539922952652,"48":0.13106460869312286,"49":-0.0057589951902627945,"50":-0.09825383126735687,"51":0.15714164078235626,"52":0.025852615013718605,"53":0.065268374979496,"54":-0.08949552476406097,"55":0.053383033722639084,"56":0.26106587052345276,"57":-0.1054139956831932,"58":0.13819390535354614,"59":-0.048005249351263046,"60":-0.06685903668403625,"61":0.26935362815856934,"62":-0.18628908693790436,"63":-0.051820483058691025,"64":0.04732193425297737,"65":0.1291147619485855,"66":0.12654194235801697,"67":0.14978471398353577,"68":0.22181661427021027,"69":0.24387836456298828,"70":0.1552165150642395,"71":-0.2630971372127533,"72":-0.18861162662506104,"73":-0.18614345788955688,"74":-0.13470807671546936,"75":-0.03610610589385033,"76":-0.008425073698163033,"77":0.0833297073841095,"78":-0.060961686074733734,"79":0.1493362933397293,"80":-0.07450143247842789,"81":-0.2097550928592682,"82":0.14728890359401703,"83":0.1260058432817459,"84":-0.0623062327504158,"85":0.04235281050205231,"86":-0.22256338596343994,"87":-0.041402846574783325,"88":0.023517150431871414,"89":0.1000852882862091,"90":-0.01109668705612421,"91":-0.2534770369529724,"92":0.056437019258737564,"93":0.09420010447502136,"94":-0.002442522905766964,"95":0.04931261017918587,"96":-0.23784151673316956,"97":-0.23195050656795502,"98":0.18031439185142517,"99":-0.008407709188759327,"100":-0.09544595330953598,"101":0.25568240880966187,"102":0.07980506867170334,"103":0.005212094634771347,"104":0.20101873576641083,"105":-0.00842411257326603,"106":-0.22701460123062134,"107":0.13842101395130157,"108":0.022429000586271286,"109":-0.13041004538536072,"110":-0.2027931660413742,"111":-0.17480571568012238,"112":-0.011510375887155533,"113":-0.13607236742973328,"114":0.10479908436536789,"115":0.00342432945035398,"116":-0.14941027760505676,"117":-0.14965170621871948,"118":0.31457722187042236,"119":-0.11104005575180054,"120":-0.0006879156571812928,"121":-0.6007136106491089,"122":-0.10419595241546631,"123":0.08408067375421524,"124":-0.004440018907189369,"125":-0.26769009232521057,"126":-0.20185251533985138,"127":-0.07938238978385925,"128":0.2667505145072937,"129":-0.5313068628311157,"130":0.5157505869865417,"131":-0.5733342170715332,"132":0.3838005065917969,"133":-0.3601803779602051,"134":-0.3815385699272156,"135":0.7163814306259155,"136":-0.44308871030807495,"137":-0.5984514355659485,"138":0.5352172255516052,"139":-0.38088712096214294,"140":0.7856393456459045,"141":-1.0620514154434204,"142":0.568480908870697,"143":-0.19234231114387512,"144":0.25804102420806885,"145":0.08846575766801834,"146":-0.34447869658470154,"147":0.4978775978088379,"148":0.6642481684684753,"149":-0.6110340356826782,"150":0.6637377738952637,"151":0.2831805646419525,"152":0.07630599290132523,"153":0.575020968914032,"154":-0.8220300674438477,"155":0.4834054112434387,"156":0.2249615490436554,"157":-0.20681403577327728,"158":-0.18493109941482544,"159":0.5559972524642944,"160":0.33656978607177734,"161":0.5447091460227966,"162":0.26433709263801575,"163":0.55487060546875,"164":0.1513821929693222,"165":-0.8098039627075195,"166":-0.2917635440826416,"167":0.012485971674323082,"168":-0.21149463951587677,"169":0.5587740540504456,"170":0.43440374732017517,"171":0.350516676902771,"172":-0.15536198019981384,"173":-0.034847360104322433,"174":-0.4459180533885956,"175":-1.1996430158615112,"176":-0.5600676536560059,"177":-0.26686057448387146,"178":0.0034124653320759535,"179":0.022625107318162918,"180":0.025993365794420242,"181":-0.26514944434165955,"182":0.22274041175842285,"183":-0.25697997212409973,"184":-0.2655307650566101,"185":-0.7297062873840332,"186":-0.6490064859390259,"187":-0.5112575888633728,"188":0.18869554996490479,"189":0.10250484943389893,"190":0.17223390936851501,"191":-0.06182478740811348,"192":-0.362209290266037,"193":-0.192730113863945,"194":-0.36063167452812195,"195":-0.3222993016242981,"196":-0.3436361253261566,"197":-0.49076518416404724,"198":-0.07413620501756668,"199":-0.1737831085920334}},"3":{"bias":16.93741798400879,"weights":{"0":0.12151961773633957,"1":0.014132247306406498,"2":0.14591412246227264,"3":-0.19788943231105804,"4":-0.014010443352162838,"5":-0.1566699743270874,"6":0.023208849132061005,"7":0.04366029426455498,"8":-0.1206180527806282,"9":-0.1496465802192688,"10":-0.36785417795181274,"11":-0.5413703322410583,"12":-0.381027489900589,"13":-0.24814017117023468,"14":0.04954058304429054,"15":-0.27087756991386414,"16":-0.9104293584823608,"17":-0.6759039759635925,"18":-0.5696791410446167,"19":-0.4723704755306244,"20":-0.6152035593986511,"21":-1.1575026512145996,"22":-0.8644818067550659,"23":-0.6524014472961426,"24":-0.5015390515327454,"25":-1.0321787595748901,"26":-0.9744366407394409,"27":-1.0879733562469482,"28":-1.196774959564209,"29":-0.9090489149093628,"30":-0.37585437297821045,"31":-0.9763469099998474,"32":-1.2226626873016357,"33":-1.153244137763977,"34":-0.9420581459999084,"35":-1.0258349180221558,"36":-0.8884381055831909,"37":-0.9436675906181335,"38":-1.287146806716919,"39":-0.9391646981239319,"40":-0.5690375566482544,"41":-0.8414670825004578,"42":-1.0037333965301514,"43":-1.2181780338287354,"44":-0.8909282684326172,"45":-0.48464006185531616,"46":-0.9329113960266113,"47":-0.8353432416915894,"48":-0.6354022026062012,"49":-0.7710346579551697,"50":-0.7823203802108765,"51":-0.83638596534729,"52":-1.1213351488113403,"53":-1.3160514831542969,"54":-0.9677751064300537,"55":-0.6490594148635864,"56":-0.6734990477561951,"57":-1.0553998947143555,"58":-0.944953978061676,"59":-0.6511356234550476,"60":-0.10318607091903687,"61":-0.7045618891716003,"62":-1.0734901428222656,"63":-1.3738642930984497,"64":-0.6725985407829285,"65":-0.5445645451545715,"66":-0.6759049296379089,"67":-0.6456168293952942,"68":-0.4965091645717621,"69":-0.2327675223350525,"70":-0.42692121863365173,"71":-0.7830728888511658,"72":-1.2684423923492432,"73":-1.5283055305480957,"74":-1.2032251358032227,"75":-0.533068835735321,"76":-0.4575180411338806,"77":-0.6226602792739868,"78":-0.7139927744865417,"79":-0.6220793128013611,"80":-0.48068225383758545,"81":-0.40616369247436523,"82":-1.3890951871871948,"83":-1.3453010320663452,"84":-1.1026618480682373,"85":-0.47000131011009216,"86":-0.5783111453056335,"87":-0.519316554069519,"88":-0.791073203086853,"89":-0.5177354216575623,"90":0.13780465722084045,"91":-0.5285371541976929,"92":-1.3891338109970093,"93":-1.5290595293045044,"94":-0.9963756203651428,"95":-0.21538296341896057,"96":-0.4030470848083496,"97":-0.549700915813446,"98":-0.42205655574798584,"99":-0.5163899660110474,"100":-0.10544527322053909,"101":-0.8797512650489807,"102":-1.2559778690338135,"103":-1.58090078830719,"104":-1.0143252611160278,"105":-0.05809804052114487,"106":-0.4076317846775055,"107":-0.6112982630729675,"108":-0.30509433150291443,"109":0.02947898767888546,"110":-0.3651694655418396,"111":-0.3068767189979553,"112":-1.2278730869293213,"113":-1.6318035125732422,"114":-0.8300889730453491,"115":-0.4943544268608093,"116":-0.4752201437950134,"117":-0.36453214287757874,"118":-0.5120595097541809,"119":-0.411802738904953,"120":0.15090863406658173,"121":-0.4555726945400238,"122":-0.921889066696167,"123":-1.3755589723587036,"124":-0.547345757484436,"125":0.0860263928771019,"126":-0.08323301374912262,"127":-0.1262245774269104,"128":-0.30575454235076904,"129":-0.07640586793422699,"130":0.4304799735546112,"131":-0.38254302740097046,"132":-1.2394837141036987,"133":-0.8226428031921387,"134":-0.4181017577648163,"135":-0.1740582436323166,"136":-0.16576670110225677,"137":-0.021311037242412567,"138":-0.1843096911907196,"139":0.07249723374843597,"140":-0.7299653887748718,"141":-1.1680623292922974,"142":-1.0149552822113037,"143":-1.3380038738250732,"144":-0.6297442317008972,"145":0.06709087640047073,"146":-0.22357796132564545,"147":-0.36712488532066345,"148":-0.28476542234420776,"149":-0.06390189379453659,"150":-0.1325424462556839,"151":-1.4714641571044922,"152":-2.1097218990325928,"153":-2.242420196533203,"154":-1.0804134607315063,"155":-0.7529163360595703,"156":-0.930250346660614,"157":-0.8832139372825623,"158":-1.0990134477615356,"159":-0.5746014714241028,"160":-5.0804972648620605,"161":-0.22170859575271606,"162":-1.7303160429000854,"163":0.5469617247581482,"164":-1.4804389476776123,"165":-0.9094377756118774,"166":-1.0235154628753662,"167":-0.6740171909332275,"168":-1.3896949291229248,"169":-2.4855895042419434,"170":0.26783448457717896,"171":-4.210175037384033,"172":-3.1464927196502686,"173":-0.29586881399154663,"174":-5.564235210418701,"175":0.81663978099823,"176":-7.561596870422363,"177":-1.5973612070083618,"178":0.8909977078437805,"179":-11.294425964355469,"180":-9.481232643127441,"181":-6.202763080596924,"182":-2.9848077297210693,"183":-7.068521499633789,"184":-11.114677429199219,"185":-3.5528006553649902,"186":-6.105474948883057,"187":-3.875992774963379,"188":-15.738097190856934,"189":-17.949024200439453,"190":-4.727424144744873,"191":-9.391350746154785,"192":-8.237298965454102,"193":-5.678968906402588,"194":-2.260629177093506,"195":1.7325823307037354,"196":-7.581515312194824,"197":-1.9140857458114624,"198":6.892360210418701,"199":7.154703617095947}},"4":{"bias":-12.86091423034668,"weights":{"0":0.09030890464782715,"1":0.12249132245779037,"2":-0.19127631187438965,"3":0.14184439182281494,"4":-0.06736481189727783,"5":-0.10191385447978973,"6":-0.13753904402256012,"7":-0.17631728947162628,"8":0.17706294357776642,"9":0.19313840568065643,"10":-1.6411175727844238,"11":-1.7992784976959229,"12":-1.5968620777130127,"13":-1.1191195249557495,"14":-0.33303406834602356,"15":-1.2616339921951294,"16":-2.2075932025909424,"17":-2.3145852088928223,"18":-2.328314781188965,"19":-1.8449124097824097,"20":-2.577415943145752,"21":-3.4762377738952637,"22":-2.943582534790039,"23":-2.709867477416992,"24":-2.437438726425171,"25":-2.8115010261535645,"26":-3.1311473846435547,"27":-3.651538610458374,"28":-3.5812976360321045,"29":-3.1871931552886963,"30":-3.2449533939361572,"31":-4.038358688354492,"32":-2.8632893562316895,"33":-3.034275531768799,"34":-2.792217969894409,"35":-2.915271520614624,"36":-3.1673803329467773,"37":-3.6598165035247803,"38":-3.8144643306732178,"39":-3.8712031841278076,"40":-4.066473484039307,"41":-4.136402130126953,"42":-3.9712491035461426,"43":-3.6712987422943115,"44":-3.9155309200286865,"45":-3.876833915710449,"46":-4.201230049133301,"47":-4.421393871307373,"48":-4.91511869430542,"49":-4.573026180267334,"50":-6.937570571899414,"51":-6.2744011878967285,"52":-4.220121383666992,"53":-4.472036838531494,"54":-5.108529090881348,"55":-6.020267963409424,"56":-5.805087089538574,"57":-6.424654960632324,"58":-6.8173370361328125,"59":-8.704832077026367,"60":-11.514728546142578,"61":-8.981905937194824,"62":-6.06917142868042,"63":-6.065938472747803,"64":-5.826659202575684,"65":-7.625179767608643,"66":-8.274015426635742,"67":-8.923894882202148,"68":-10.112950325012207,"69":-11.522871017456055,"70":-9.632343292236328,"71":-11.838211059570312,"72":-11.864304542541504,"73":-9.466246604919434,"74":-9.079353332519531,"75":-9.208280563354492,"76":-9.545116424560547,"77":-10.971141815185547,"78":-9.747213363647461,"79":-8.790316581726074,"80":-2.8290562629699707,"81":-10.274063110351562,"82":-16.74999237060547,"83":-15.20394229888916,"84":-12.147796630859375,"85":-6.304609298706055,"86":-7.273195743560791,"87":-9.605680465698242,"88":-10.256939888000488,"89":-6.967912197113037,"90":7.738553047180176,"91":2.8193485736846924,"92":-3.5316109657287598,"93":-7.596677303314209,"94":3.9931480884552,"95":4.558802604675293,"96":6.928151607513428,"97":8.720270156860352,"98":6.273207664489746,"99":11.297798156738281,"100":8.20109748840332,"101":4.728094100952148,"102":-3.86411714553833,"103":-7.698483943939209,"104":4.530999660491943,"105":5.282898426055908,"106":6.649078845977783,"107":11.401333808898926,"108":11.86007308959961,"109":15.437361717224121,"110":5.563470363616943,"111":4.1168212890625,"112":-3.8713905811309814,"113":-5.2796735763549805,"114":-5.224925994873047,"115":-1.744187831878662,"116":-0.2119668573141098,"117":6.84634256362915,"118":12.530936241149902,"119":12.948478698730469,"120":8.327520370483398,"121":5.315747261047363,"122":-2.3442330360412598,"123":-6.4514265060424805,"124":-2.512125015258789,"125":-1.5679633617401123,"126":1.0631228685379028,"127":4.453843593597412,"128":10.283258438110352,"129":6.711694240570068,"130":3.3569955825805664,"131":4.395097732543945,"132":-4.172528266906738,"133":-6.8157219886779785,"134":-4.983676910400391,"135":0.18575222790241241,"136":-0.8780114054679871,"137":3.1652145385742188,"138":4.653540134429932,"139":5.211634159088135,"140":1.0428965091705322,"141":-0.7278516888618469,"142":-0.7403461933135986,"143":-3.5523550510406494,"144":-3.6092395782470703,"145":-1.4524421691894531,"146":-1.4438068866729736,"147":-1.3016310930252075,"148":4.095311164855957,"149":1.4680525064468384,"150":1.7927021980285645,"151":2.4669086933135986,"152":-1.4551953077316284,"153":0.12687411904335022,"154":-4.441924095153809,"155":-3.5919506549835205,"156":-3.1381802558898926,"157":-0.005770296324044466,"158":0.12187797576189041,"159":0.42887088656425476,"160":1.2015376091003418,"161":2.426650047302246,"162":1.0702003240585327,"163":-1.5432902574539185,"164":-2.1421542167663574,"165":-4.602550983428955,"166":-1.5703916549682617,"167":0.361024409532547,"168":2.0692298412323,"169":-2.039264440536499,"170":-0.5056706070899963,"171":2.156451463699341,"172":-0.9197916388511658,"173":1.7933663129806519,"174":-4.259637355804443,"175":-1.5744647979736328,"176":-0.23887799680233002,"177":-5.232050895690918,"178":-0.6692073941230774,"179":-2.4054901599884033,"180":-3.658474922180176,"181":-2.2353439331054688,"182":-1.084524393081665,"183":-4.770387172698975,"184":-0.9876187443733215,"185":-1.7386722564697266,"186":-1.9242068529129028,"187":-1.596337080001831,"188":-0.6396862268447876,"189":0.5783093571662903,"190":-7.7326979637146,"191":-5.5166425704956055,"192":-5.077245712280273,"193":-5.100993633270264,"194":-0.8372414708137512,"195":-2.566350221633911,"196":-1.8476638793945312,"197":-3.6739866733551025,"198":-5.054908752441406,"199":-4.5333452224731445}},"5":{"bias":-0.19273458421230316,"weights":{"0":-0.013973567634820938,"1":0.08232182264328003,"2":-0.014158666133880615,"3":0.13750587403774261,"4":-0.1881439983844757,"5":0.11320202052593231,"6":-0.18412835896015167,"7":-0.19899652898311615,"8":-0.08834201097488403,"9":0.09184848517179489,"10":-0.18346361815929413,"11":0.1529701203107834,"12":0.013125422410666943,"13":0.07291492819786072,"14":-0.08537496626377106,"15":-0.172317236661911,"16":0.01591837778687477,"17":-0.1359233856201172,"18":0.175011545419693,"19":-0.006507278420031071,"20":-0.18891353905200958,"21":-0.17782585322856903,"22":0.032749224454164505,"23":-0.13157081604003906,"24":-0.10590551793575287,"25":0.11397118866443634,"26":0.08424778282642365,"27":0.0039517516270279884,"28":0.010654008947312832,"29":0.0037039031740278006,"30":0.17806902527809143,"31":-0.1748151183128357,"32":0.12226483225822449,"33":0.17734116315841675,"34":0.04338231682777405,"35":-0.13160641491413116,"36":0.1630505472421646,"37":-0.05762733891606331,"38":-0.12578752636909485,"39":-0.13163766264915466,"40":0.18890710175037384,"41":0.15680955350399017,"42":-0.08846259117126465,"43":0.031364768743515015,"44":-0.1844261884689331,"45":0.17704401910305023,"46":-0.04271094501018524,"47":0.1807054579257965,"48":0.10592077672481537,"49":-0.1994996964931488,"50":0.13728652894496918,"51":0.20116905868053436,"52":-0.1647433191537857,"53":0.1943814605474472,"54":-0.12701824307441711,"55":0.13504086434841156,"56":-0.06356961280107498,"57":-0.05823839083313942,"58":-0.11091119796037674,"59":-0.04365143924951553,"60":-0.07155367732048035,"61":0.09425036609172821,"62":-0.11793272942304611,"63":0.1421823501586914,"64":-0.10698572546243668,"65":-0.15140223503112793,"66":-0.14757360517978668,"67":0.02300560474395752,"68":-0.12057116627693176,"69":-0.058965738862752914,"70":-0.19377624988555908,"71":-0.07298087328672409,"72":-0.11184152215719223,"73":0.19410525262355804,"74":-0.07572179287672043,"75":0.09946504235267639,"76":0.13687528669834137,"77":0.05090317502617836,"78":-0.02310110628604889,"79":-0.20132185518741608,"80":-0.005791757255792618,"81":0.04357524588704109,"82":-0.11447212100028992,"83":-0.0010183766717091203,"84":-0.19408848881721497,"85":-0.11027191579341888,"86":0.01274757832288742,"87":-0.1746291220188141,"88":-0.15042540431022644,"89":-0.05776619166135788,"90":0.02839893475174904,"91":0.05874045565724373,"92":0.12382962554693222,"93":-0.08267787843942642,"94":-0.019821712747216225,"95":-0.07164391875267029,"96":-0.06007278338074684,"97":0.020391037687659264,"98":-0.01258564181625843,"99":-0.15858246386051178,"100":0.08826865255832672,"101":0.05093233659863472,"102":-0.07432837784290314,"103":0.044241439551115036,"104":-0.029118211939930916,"105":0.030640730634331703,"106":-0.1306820809841156,"107":-0.1979004144668579,"108":-0.12481196224689484,"109":0.1415344476699829,"110":-0.0408552922308445,"111":0.02390136383473873,"112":-0.1424160897731781,"113":-0.05650148168206215,"114":0.05290554463863373,"115":-0.13267238438129425,"116":-0.06868812441825867,"117":-0.07672285288572311,"118":0.11422819644212723,"119":-0.03405383601784706,"120":-0.23682452738285065,"121":-0.06873872876167297,"122":-0.22253914177417755,"123":0.039620403200387955,"124":0.034675147384405136,"125":0.10331835597753525,"126":-0.13145200908184052,"127":0.14685450494289398,"128":0.07748029381036758,"129":-0.21259436011314392,"130":0.0010221870616078377,"131":0.05559029430150986,"132":-0.11245410889387131,"133":-0.12818819284439087,"134":0.1349162608385086,"135":-0.20808318257331848,"136":0.005679704714566469,"137":-0.18789142370224,"138":-0.236541748046875,"139":-0.22939403355121613,"140":-0.10687421262264252,"141":0.078404501080513,"142":0.0878964215517044,"143":0.0719500482082367,"144":0.02376352995634079,"145":-0.006446158979088068,"146":-0.12378541380167007,"147":0.12562565505504608,"148":-0.1894095242023468,"149":0.05060992017388344,"150":0.12531499564647675,"151":-0.13383854925632477,"152":-0.20540016889572144,"153":-0.019475426524877548,"154":0.07991285622119904,"155":-0.11312229931354523,"156":0.014851408079266548,"157":0.03561541438102722,"158":-0.01884654350578785,"159":0.07282638549804688,"160":-0.23091673851013184,"161":0.00038582339766435325,"162":-0.21911479532718658,"163":-0.018251219764351845,"164":-0.19800013303756714,"165":-0.1592216044664383,"166":-0.1535075604915619,"167":0.13908085227012634,"168":-0.26161155104637146,"169":-0.03153279796242714,"170":0.04530774801969528,"171":0.047305282205343246,"172":-0.1254795789718628,"173":-0.0872109904885292,"174":-0.0800350159406662,"175":0.00840113777667284,"176":0.043337613344192505,"177":-0.10599444806575775,"178":0.05407579988241196,"179":-0.2200363129377365,"180":-0.19197793304920197,"181":-0.08621962368488312,"182":0.01593225635588169,"183":-0.15186677873134613,"184":0.016292860731482506,"185":-0.06783097237348557,"186":-0.26507964730262756,"187":-0.18275023996829987,"188":-0.2108411341905594,"189":-0.15490788221359253,"190":-0.07509090006351471,"191":0.027686744928359985,"192":0.09018269926309586,"193":-0.1927843540906906,"194":-0.318387895822525,"195":0.07252362370491028,"196":-0.11782071739435196,"197":-0.222495436668396,"198":-0.005979628302156925,"199":-0.14694872498512268}},"6":{"bias":-0.4447445273399353,"weights":{"0":-0.11249982565641403,"1":0.04454563558101654,"2":0.06364133208990097,"3":0.1445852667093277,"4":0.09430649876594543,"5":0.053106438368558884,"6":0.04042398929595947,"7":-0.0145201925188303,"8":-0.17219771444797516,"9":-0.15549738705158234,"10":-0.014083041809499264,"11":-0.03571942448616028,"12":-0.026331936940550804,"13":0.27727630734443665,"14":0.021141348406672478,"15":0.03850382938981056,"16":-0.08612419664859772,"17":-0.08893458545207977,"18":-0.02619069069623947,"19":0.11578740924596786,"20":0.07207788527011871,"21":-0.037345465272665024,"22":0.18612034618854523,"23":0.19304069876670837,"24":0.13390597701072693,"25":0.27159273624420166,"26":0.2561430037021637,"27":0.044623564928770065,"28":0.20425967872142792,"29":0.1771705150604248,"30":0.28012192249298096,"31":0.29631102085113525,"32":-0.00921652652323246,"33":0.1826838254928589,"34":0.23943795263767242,"35":-0.1416594386100769,"36":0.13440048694610596,"37":-0.11588045209646225,"38":-0.10619138181209564,"39":0.23877571523189545,"40":0.4273192882537842,"41":0.28458622097969055,"42":0.23950809240341187,"43":0.025737149640917778,"44":-0.16630074381828308,"45":-0.2134360373020172,"46":0.3133307993412018,"47":0.2011829912662506,"48":-0.15266874432563782,"49":0.1894482523202896,"50":0.49095383286476135,"51":0.09232079982757568,"52":0.27863121032714844,"53":0.6715730428695679,"54":0.07683455944061279,"55":-0.03245750814676285,"56":0.4450772702693939,"57":0.17425228655338287,"58":0.3655468225479126,"59":0.15302371978759766,"60":0.19748471677303314,"61":0.42557772994041443,"62":0.2452351301908493,"63":0.22793777287006378,"64":-0.02292352169752121,"65":0.19907167553901672,"66":0.4302259683609009,"67":0.7998298406600952,"68":0.4721938669681549,"69":0.40482741594314575,"70":0.5069130659103394,"71":0.28633761405944824,"72":0.2579459547996521,"73":0.5661667585372925,"74":0.3217429220676422,"75":0.4420417249202728,"76":0.8381111025810242,"77":0.3793177604675293,"78":0.8549507856369019,"79":0.6240437030792236,"80":0.36091771721839905,"81":0.2602693736553192,"82":0.9360536932945251,"83":0.7204521894454956,"84":0.7441602349281311,"85":0.6101804375648499,"86":0.5461998581886292,"87":0.5828543305397034,"88":0.9417483806610107,"89":0.5974227786064148,"90":0.5583833456039429,"91":0.5316799879074097,"92":0.2682960629463196,"93":0.9353293776512146,"94":0.6067131757736206,"95":1.0675530433654785,"96":0.6688672304153442,"97":0.25662457942962646,"98":0.7059901356697083,"99":0.6410796046257019,"100":0.1761821061372757,"101":0.5391847491264343,"102":0.6240089535713196,"103":1.0061951875686646,"104":0.3456943929195404,"105":-0.06696794182062149,"106":0.7798318266868591,"107":0.010121825151145458,"108":0.47651535272598267,"109":0.23280544579029083,"110":-0.3368578553199768,"111":0.35266172885894775,"112":0.998329222202301,"113":1.1322919130325317,"114":0.011991720646619797,"115":0.07407063990831375,"116":-0.3904177248477936,"117":-0.3839878737926483,"118":0.5298179984092712,"119":-0.8076068758964539,"120":-0.8994739055633545,"121":-0.4688081443309784,"122":0.26802921295166016,"123":0.6352800726890564,"124":-0.923785388469696,"125":-1.184653639793396,"126":-1.0453566312789917,"127":-1.0561974048614502,"128":-0.12972550094127655,"129":-1.0614062547683716,"130":-1.6572688817977905,"131":-0.43923938274383545,"132":0.32892581820487976,"133":0.2351040244102478,"134":-0.35583996772766113,"135":-1.0307058095932007,"136":-1.1773256063461304,"137":-1.118877649307251,"138":-0.5952327251434326,"139":-0.9675144553184509,"140":-0.863040566444397,"141":-0.2207261174917221,"142":-0.16722019016742706,"143":0.364976167678833,"144":-0.6135444641113281,"145":-0.43801403045654297,"146":-0.6661613583564758,"147":-0.6791636347770691,"148":-0.15252883732318878,"149":-1.6603569984436035,"150":-0.9416722059249878,"151":-0.5300269722938538,"152":0.40011149644851685,"153":0.46903014183044434,"154":-0.033267974853515625,"155":-0.2933565378189087,"156":-0.5443620681762695,"157":-0.5866726040840149,"158":0.3902120292186737,"159":-2.0631844997406006,"160":-0.8217735290527344,"161":-1.8619269132614136,"162":0.1547391712665558,"163":0.548085629940033,"164":0.15232478082180023,"165":0.0616782009601593,"166":-0.8159897327423096,"167":-0.5986841917037964,"168":-0.20677971839904785,"169":-2.004920482635498,"170":-1.1167477369308472,"171":-2.3860607147216797,"172":-0.5695216059684753,"173":-0.6895133852958679,"174":-1.1423027515411377,"175":0.07691500335931778,"176":-0.06130445376038551,"177":-1.5729670524597168,"178":-0.34728729724884033,"179":-1.439316749572754,"180":-1.049153447151184,"181":-0.5349038243293762,"182":0.577780544757843,"183":1.2591396570205688,"184":-1.1144558191299438,"185":1.0089043378829956,"186":-0.8972961902618408,"187":-1.686949610710144,"188":0.7031263113021851,"189":-0.342943400144577,"190":-1.856380581855774,"191":-0.976874053478241,"192":1.4930438995361328,"193":0.18572621047496796,"194":-1.5005249977111816,"195":-1.2361667156219482,"196":0.42596307396888733,"197":-0.0414745956659317,"198":-0.03279354050755501,"199":-0.2263423502445221}},"7":{"bias":-5.518741607666016,"weights":{"0":-0.19525906443595886,"1":0.07046865671873093,"2":-0.14219096302986145,"3":-0.13843630254268646,"4":0.03220231831073761,"5":-0.12133274972438812,"6":0.14684873819351196,"7":0.11247469484806061,"8":0.16402673721313477,"9":-0.0016104328678920865,"10":-1.9726241827011108,"11":-2.9307565689086914,"12":-0.9604992270469666,"13":-0.36249569058418274,"14":-0.6595580577850342,"15":-1.42777681350708,"16":-1.43634033203125,"17":-2.029097080230713,"18":-2.37345290184021,"19":-3.354360580444336,"20":0.18790730834007263,"21":-3.195558547973633,"22":-3.128319263458252,"23":-1.0617505311965942,"24":-2.8160295486450195,"25":-2.001187801361084,"26":-2.029751777648926,"27":-1.1480695009231567,"28":-2.7217776775360107,"29":1.0045537948608398,"30":4.535251140594482,"31":-0.9482874870300293,"32":-3.295867443084717,"33":-4.716455459594727,"34":-0.6761478781700134,"35":0.8516558408737183,"36":0.27346232533454895,"37":1.7374954223632812,"38":0.9048553109169006,"39":6.052125453948975,"40":9.458624839782715,"41":6.295905113220215,"42":-0.09088501334190369,"43":-3.1813647747039795,"44":1.8134123086929321,"45":5.877886772155762,"46":7.062530040740967,"47":10.641515731811523,"48":10.617698669433594,"49":12.791497230529785,"50":9.802906036376953,"51":9.927340507507324,"52":6.5182785987854,"53":-0.3191511631011963,"54":7.068976402282715,"55":8.880804061889648,"56":11.898103713989258,"57":13.843733787536621,"58":16.674386978149414,"59":17.01803970336914,"60":3.2000935077667236,"61":2.2417151927948,"62":-1.8997620344161987,"63":-4.469363212585449,"64":0.024032937362790108,"65":2.5442821979522705,"66":2.025359869003296,"67":1.411825180053711,"68":3.0318350791931152,"69":3.5995113849639893,"70":-0.2705669105052948,"71":-1.3982242345809937,"72":-2.4772393703460693,"73":0.2703405022621155,"74":-3.6821248531341553,"75":-4.822959899902344,"76":-3.488053560256958,"77":-3.687901496887207,"78":-4.858725547790527,"79":-3.763396978378296,"80":-2.9383955001831055,"81":-0.514430046081543,"82":2.307435989379883,"83":0.15028493106365204,"84":-3.143355369567871,"85":-2.68511700630188,"86":-1.8991074562072754,"87":-4.276587009429932,"88":-3.790937900543213,"89":-3.6539084911346436,"90":-2.1257026195526123,"91":-0.7247628569602966,"92":2.0046908855438232,"93":-0.26546767354011536,"94":-0.9852874279022217,"95":-1.8986066579818726,"96":-1.0184099674224854,"97":-2.9464454650878906,"98":-3.3089561462402344,"99":-2.855255365371704,"100":-1.8745710849761963,"101":-0.9473549127578735,"102":0.2880081236362457,"103":-1.38784658908844,"104":0.39855608344078064,"105":0.19982624053955078,"106":-0.9555994868278503,"107":-0.8587867617607117,"108":-0.07113742083311081,"109":-1.7209278345108032,"110":-0.9490001201629639,"111":-0.4819852113723755,"112":-0.9655721187591553,"113":1.9606976509094238,"114":0.7244465947151184,"115":-1.0754821300506592,"116":0.21709688007831573,"117":0.7838565111160278,"118":-1.1517003774642944,"119":0.42008259892463684,"120":-0.7416092157363892,"121":1.7226659059524536,"122":-0.618861198425293,"123":1.8343491554260254,"124":0.1773148775100708,"125":0.31035304069519043,"126":-0.6525518298149109,"127":-2.4225499629974365,"128":0.005042001139372587,"129":-0.6121247410774231,"130":-0.8958238363265991,"131":-0.6095960140228271,"132":-1.1410707235336304,"133":0.6959237456321716,"134":-0.4462431073188782,"135":0.036325205117464066,"136":0.4981907606124878,"137":-0.5460114479064941,"138":-0.40589210391044617,"139":-0.5528041124343872,"140":-1.358136534690857,"141":-2.76218581199646,"142":0.16671432554721832,"143":0.6635164022445679,"144":0.564492404460907,"145":0.39700406789779663,"146":0.5036000609397888,"147":0.6144401431083679,"148":1.6049389839172363,"149":0.6211000084877014,"150":-0.8462313413619995,"151":-0.10963473469018936,"152":1.2324131727218628,"153":-1.1635618209838867,"154":-0.4079749286174774,"155":-0.15096727013587952,"156":-0.9345098733901978,"157":-0.13297665119171143,"158":0.6011685132980347,"159":2.048197031021118,"160":0.47196727991104126,"161":-2.4739933013916016,"162":1.5138150453567505,"163":0.03240237012505531,"164":-1.7404227256774902,"165":0.4792572557926178,"166":-1.2835423946380615,"167":-0.4150908887386322,"168":1.1361995935440063,"169":0.2689020037651062,"170":1.3456989526748657,"171":-2.1235079765319824,"172":0.42616865038871765,"173":-1.029767632484436,"174":-0.6035900115966797,"175":-0.5567978024482727,"176":-0.8421615362167358,"177":0.8779762387275696,"178":0.026731988415122032,"179":1.3251389265060425,"180":-0.03904750943183899,"181":-1.2700836658477783,"182":-0.9252790808677673,"183":-1.600372314453125,"184":0.712159276008606,"185":-0.9119516611099243,"186":-1.5876294374465942,"187":-3.738039255142212,"188":-0.9480642080307007,"189":-0.5948386192321777,"190":-1.8628242015838623,"191":-2.242936611175537,"192":-1.3128302097320557,"193":-2.453766107559204,"194":1.023777723312378,"195":0.6599023342132568,"196":0.523773193359375,"197":-1.1070425510406494,"198":-1.8641501665115356,"199":-0.6560565233230591}},"8":{"bias":-0.20555545389652252,"weights":{"0":0.07712626457214355,"1":0.17666320502758026,"2":0.18513233959674835,"3":0.1383160501718521,"4":-0.11296781152486801,"5":0.024099215865135193,"6":-0.16272014379501343,"7":-0.13040775060653687,"8":-0.0852462649345398,"9":-0.04776965454220772,"10":0.10160316526889801,"11":0.16957688331604004,"12":0.14078287780284882,"13":-0.04227285459637642,"14":-0.08821084350347519,"15":-0.17553648352622986,"16":0.11039517819881439,"17":0.0953957736492157,"18":-0.04514560103416443,"19":-0.04312000051140785,"20":0.13518492877483368,"21":0.06424418091773987,"22":-0.18745025992393494,"23":-0.12559132277965546,"24":-0.09643114358186722,"25":-0.06234431639313698,"26":0.1844644695520401,"27":-0.06931275129318237,"28":0.10660660266876221,"29":-0.04655912145972252,"30":-0.07627338171005249,"31":0.01488141342997551,"32":0.1912606805562973,"33":-0.1628732979297638,"34":-0.12685072422027588,"35":0.1370687037706375,"36":-0.023383863270282745,"37":-0.038278575986623764,"38":0.08669143170118332,"39":-0.0015533348778262734,"40":-0.0924341082572937,"41":0.037278417497873306,"42":-0.06903429329395294,"43":-0.11028263717889786,"44":-0.1652163565158844,"45":0.009854028932750225,"46":0.04772379994392395,"47":0.03323144465684891,"48":-0.027011733502149582,"49":0.022037681192159653,"50":0.15738074481487274,"51":-0.06598109751939774,"52":0.16917948424816132,"53":-0.08658143132925034,"54":0.03950728103518486,"55":0.10615736991167068,"56":-0.1221114918589592,"57":-0.1964542120695114,"58":0.13484211266040802,"59":0.11916324496269226,"60":-0.2135627418756485,"61":0.018225539475679398,"62":-0.050295259803533554,"63":-0.13453076779842377,"64":0.13653424382209778,"65":-0.12491527199745178,"66":-0.10123474895954132,"67":-0.06483756750822067,"68":0.030935468152165413,"69":0.05082760006189346,"70":-0.2233140915632248,"71":-0.02319249138236046,"72":0.05609216168522835,"73":-0.051408104598522186,"74":-0.0735078975558281,"75":-0.14318865537643433,"76":0.105351522564888,"77":-0.03648820146918297,"78":0.16403606534004211,"79":-0.2219313234090805,"80":-0.15463687479496002,"81":-0.09335360676050186,"82":-0.13309435546398163,"83":-0.18781769275665283,"84":-0.2375049591064453,"85":-0.08802902698516846,"86":-0.1562298834323883,"87":-0.048907406628131866,"88":-0.22669991850852966,"89":-0.012238314375281334,"90":0.1320279836654663,"91":-0.13970355689525604,"92":0.12523317337036133,"93":-0.07355009019374847,"94":0.16578616201877594,"95":0.024552229791879654,"96":-0.05268360674381256,"97":0.043441157788038254,"98":-0.07670369744300842,"99":-0.12180618196725845,"100":-0.11774943023920059,"101":0.08219753205776215,"102":0.17133508622646332,"103":-0.14258766174316406,"104":0.033239204436540604,"105":-0.2614329159259796,"106":-0.1766354888677597,"107":-0.13788515329360962,"108":-0.00020268950902391225,"109":0.12654925882816315,"110":-0.12035871297121048,"111":-0.041136570274829865,"112":0.17790111899375916,"113":0.05547571927309036,"114":-0.09452936053276062,"115":-0.051746077835559845,"116":0.03700604289770126,"117":-0.06620167195796967,"118":-0.004789893515408039,"119":-0.12526744604110718,"120":-0.1164010539650917,"121":-0.12765084207057953,"122":-0.166574165225029,"123":0.07935699820518494,"124":-0.14614810049533844,"125":-0.09988122433423996,"126":0.08193197101354599,"127":-0.12765489518642426,"128":-0.08656930178403854,"129":-0.06928133964538574,"130":-0.18350481986999512,"131":-0.19992545247077942,"132":-0.11767426878213882,"133":0.007765877526253462,"134":-0.11542291194200516,"135":-0.026212166994810104,"136":-0.1022043377161026,"137":-0.06834125518798828,"138":-0.28831717371940613,"139":-0.07394799590110779,"140":-0.13926976919174194,"141":-0.10217513889074326,"142":0.007370664272457361,"143":-0.0647808164358139,"144":-0.09692829847335815,"145":0.0699804350733757,"146":-0.26227861642837524,"147":-0.18141260743141174,"148":-0.10240057110786438,"149":-0.006397940218448639,"150":-0.1936061680316925,"151":-0.12568169832229614,"152":0.05584006756544113,"153":-0.24589841067790985,"154":-0.07888514548540115,"155":-0.23169469833374023,"156":-0.005751740653067827,"157":0.002706274390220642,"158":0.009432373568415642,"159":-0.2071145623922348,"160":-0.1407824158668518,"161":-0.16802342236042023,"162":-0.046554867178201675,"163":-0.29955071210861206,"164":0.04090818762779236,"165":-0.26061558723449707,"166":-0.2836489677429199,"167":-0.12377236038446426,"168":-0.055291175842285156,"169":-0.11753372848033905,"170":-0.21672822535037994,"171":-0.3365093469619751,"172":0.03979385271668434,"173":-0.29449716210365295,"174":-0.2876026928424835,"175":0.017028700560331345,"176":-0.031220920383930206,"177":0.008761594071984291,"178":-0.3237381875514984,"179":-0.08541085571050644,"180":-0.0901331827044487,"181":-0.2129216343164444,"182":-0.35227134823799133,"183":-0.3023293912410736,"184":-0.2633090019226074,"185":-0.026155635714530945,"186":-0.17985855042934418,"187":-0.1719166338443756,"188":-0.2624121606349945,"189":-0.06355710327625275,"190":-0.23474465310573578,"191":-0.11547341197729111,"192":0.05851238593459129,"193":-0.17367564141750336,"194":-0.2412528097629547,"195":-0.07306123524904251,"196":-0.11922015249729156,"197":-0.042581818997859955,"198":-0.22422513365745544,"199":-0.19069059193134308}},"9":{"bias":-11.14857292175293,"weights":{"0":-0.13611459732055664,"1":-0.10224668681621552,"2":-0.18457742035388947,"3":-0.06961053609848022,"4":-0.028411200270056725,"5":0.12309172749519348,"6":-0.19967883825302124,"7":0.1801140457391739,"8":0.02769782394170761,"9":0.06038413569331169,"10":-8.364655494689941,"11":-3.203479051589966,"12":-2.114123821258545,"13":-1.1680636405944824,"14":-0.6578258872032166,"15":-2.4072515964508057,"16":-5.401318073272705,"17":-6.539337635040283,"18":-5.175377368927002,"19":-8.723755836486816,"20":-14.538851737976074,"21":-9.996282577514648,"22":-5.609755992889404,"23":-3.377840280532837,"24":-6.00841760635376,"25":-8.025924682617188,"26":-9.292471885681152,"27":-14.535416603088379,"28":-13.586699485778809,"29":-17.66452407836914,"30":-14.638205528259277,"31":-16.865009307861328,"32":-12.429309844970703,"33":-11.954941749572754,"34":-12.338772773742676,"35":-9.97453498840332,"36":-8.301467895507812,"37":-13.196503639221191,"38":-14.746845245361328,"39":-15.704235076904297,"40":0.9198961853981018,"41":-10.104662895202637,"42":-19.65208625793457,"43":-17.884225845336914,"44":-15.415303230285645,"45":-9.177871704101562,"46":-10.75072193145752,"47":-12.613292694091797,"48":-11.185647964477539,"49":-8.56882381439209,"50":17.992246627807617,"51":3.7021448612213135,"52":-7.1823296546936035,"53":-9.861502647399902,"54":3.1145262718200684,"55":9.21548843383789,"56":7.6846022605896,"57":14.593780517578125,"58":12.273500442504883,"59":16.66351318359375,"60":32.50374221801758,"61":27.917388916015625,"62":4.857436180114746,"63":0.5363661646842957,"64":21.593494415283203,"65":33.82950973510742,"66":40.29307174682617,"67":44.804073333740234,"68":45.668914794921875,"69":43.762489318847656,"70":6.236583232879639,"71":5.380167484283447,"72":-0.33526134490966797,"73":-6.435097694396973,"74":2.5898208618164062,"75":6.4707231521606445,"76":1.121495246887207,"77":2.49426531791687,"78":4.835655212402344,"79":5.791385650634766,"80":-3.649292230606079,"81":-5.376225471496582,"82":0.02760465443134308,"83":0.7503730654716492,"84":-7.1610212326049805,"85":-2.3862521648406982,"86":-11.974503517150879,"87":-8.851999282836914,"88":-7.378891468048096,"89":-4.752241611480713,"90":-1.8704084157943726,"91":-4.454746246337891,"92":4.572963237762451,"93":-0.6904888153076172,"94":0.8258228302001953,"95":-7.149486064910889,"96":-6.5835795402526855,"97":-6.916514873504639,"98":-4.0612473487854,"99":-8.910855293273926,"100":-5.544195652008057,"101":-5.086243152618408,"102":3.0382184982299805,"103":-3.568211317062378,"104":-2.7124369144439697,"105":-2.3794848918914795,"106":-6.935559272766113,"107":-4.608119487762451,"108":-5.796812057495117,"109":-9.916725158691406,"110":-0.9509150385856628,"111":-2.951590061187744,"112":-2.4093239307403564,"113":0.033083226531744,"114":-6.935129642486572,"115":-2.30379319190979,"116":-9.746713638305664,"117":-7.732326507568359,"118":-7.890593528747559,"119":-3.7259836196899414,"120":-2.9995572566986084,"121":-2.54974102973938,"122":-4.292847633361816,"123":-3.665316581726074,"124":-1.0463117361068726,"125":-3.271688938140869,"126":-4.302524566650391,"127":-7.683908462524414,"128":-4.467932224273682,"129":-0.8468716144561768,"130":3.231227397918701,"131":-5.460224628448486,"132":-3.6292309761047363,"133":-1.690523624420166,"134":-1.6827993392944336,"135":1.0481294393539429,"136":-0.5893051028251648,"137":0.20760005712509155,"138":-0.4206686019897461,"139":-0.11960436403751373,"140":-2.376671314239502,"141":-9.679399490356445,"142":-3.1844804286956787,"143":-2.5629310607910156,"144":-5.015120029449463,"145":-0.39568790793418884,"146":0.6560749411582947,"147":2.833336353302002,"148":-0.3484835624694824,"149":-1.9779564142227173,"150":-5.431482315063477,"151":-4.369882583618164,"152":-7.6655778884887695,"153":-2.570624589920044,"154":-1.7986520528793335,"155":-1.3282090425491333,"156":-1.9630193710327148,"157":-3.022219181060791,"158":-7.164484024047852,"159":-0.003730977652594447,"160":-4.755242347717285,"161":-3.6779303550720215,"162":-1.904234766960144,"163":-4.0189008712768555,"164":-5.611593246459961,"165":-3.0020880699157715,"166":-4.866025447845459,"167":-0.9457888007164001,"168":-7.391402721405029,"169":-1.672992467880249,"170":-3.6172451972961426,"171":-6.4619550704956055,"172":-1.6715984344482422,"173":-4.515814304351807,"174":-1.8623069524765015,"175":-5.461624622344971,"176":-5.609405517578125,"177":-6.95980978012085,"178":-4.358006954193115,"179":-4.396717548370361,"180":-0.8302716016769409,"181":-3.29978609085083,"182":-0.4437939524650574,"183":-5.447886943817139,"184":-3.529905080795288,"185":-7.764369964599609,"186":-5.699438571929932,"187":-1.5783339738845825,"188":-5.362471580505371,"189":-6.853281021118164,"190":-2.997032880783081,"191":-3.073849678039551,"192":0.3481862545013428,"193":-3.895517110824585,"194":-6.19783878326416,"195":0.9130385518074036,"196":-0.20572175085544586,"197":0.2572418749332428,"198":-3.0480194091796875,"199":-0.8471947312355042}},"10":{"bias":12.888915061950684,"weights":{"0":-0.061077434569597244,"1":0.17768517136573792,"2":0.18621952831745148,"3":-0.16324768960475922,"4":-0.06626929342746735,"5":-0.1663435995578766,"6":-0.17168091237545013,"7":0.11372660845518112,"8":0.04737043380737305,"9":-0.018899912014603615,"10":-0.44744664430618286,"11":-0.36188945174217224,"12":-0.350602388381958,"13":-0.09849534183740616,"14":-0.1239897757768631,"15":-0.21506267786026,"16":-0.6668914556503296,"17":-0.5065006017684937,"18":-0.5818101167678833,"19":-0.4312303960323334,"20":-0.6935235857963562,"21":-0.933722734451294,"22":-0.7590419054031372,"23":-0.6691147089004517,"24":-0.3167627453804016,"25":-0.6643278002738953,"26":-0.9735477566719055,"27":-0.8747103810310364,"28":-0.9959960579872131,"29":-0.512407124042511,"30":-0.5069375038146973,"31":-0.7658930420875549,"32":-0.9546625018119812,"33":-0.9771038889884949,"34":-0.7772795557975769,"35":-0.7919864654541016,"36":-0.5408567190170288,"37":-0.555226743221283,"38":-0.9925525188446045,"39":-0.7039084434509277,"40":-0.30428946018218994,"41":-0.45793068408966064,"42":-0.8925130367279053,"43":-1.0221374034881592,"44":-0.6357659697532654,"45":-0.5057961344718933,"46":-0.7158485054969788,"47":-0.6744067072868347,"48":-0.7310007214546204,"49":-0.4961114525794983,"50":-0.3185513913631439,"51":-0.7910177111625671,"52":-0.7416117787361145,"53":-1.0257413387298584,"54":-0.599516749382019,"55":-0.3823406398296356,"56":-0.602526843547821,"57":-0.45560237765312195,"58":-0.5723168253898621,"59":-0.35147979855537415,"60":-0.06152918562293053,"61":-0.7318219542503357,"62":-0.911853015422821,"63":-0.9341188073158264,"64":-0.31591519713401794,"65":-0.046803396195173264,"66":-0.4404446482658386,"67":-0.17332527041435242,"68":-0.31026187539100647,"69":-0.18266764283180237,"70":0.11500649899244308,"71":-0.6112586855888367,"72":-1.1502307653427124,"73":-1.1425689458847046,"74":-0.730293869972229,"75":-0.22820554673671722,"76":-0.3012642562389374,"77":-0.47319304943084717,"78":-0.23185081779956818,"79":-0.007106190547347069,"80":-0.03786587342619896,"81":-0.31729045510292053,"82":-1.0460240840911865,"83":-1.0733803510665894,"84":-0.6077722311019897,"85":-0.29356175661087036,"86":-0.43686985969543457,"87":-0.1833711713552475,"88":-0.4315873682498932,"89":-0.32018011808395386,"90":0.22657451033592224,"91":0.008760196156799793,"92":-0.8729256391525269,"93":-1.1605960130691528,"94":-0.6562339067459106,"95":-0.15140455961227417,"96":0.032428912818431854,"97":-0.34989574551582336,"98":-0.32599079608917236,"99":-0.3042273223400116,"100":0.12684611976146698,"101":-0.32178887724876404,"102":-0.8645234704017639,"103":-1.0846645832061768,"104":-0.553334653377533,"105":0.0768156424164772,"106":-0.13259057700634003,"107":0.034536536782979965,"108":0.03206883743405342,"109":0.3624364733695984,"110":-0.04891350120306015,"111":-0.25922253727912903,"112":-1.0374201536178589,"113":-1.2448111772537231,"114":-0.6569848656654358,"115":-0.1788090169429779,"116":-0.2742960751056671,"117":0.021134233102202415,"118":-0.010421166196465492,"119":0.19904519617557526,"120":0.17250525951385498,"121":0.1915331929922104,"122":-0.48388001322746277,"123":-0.8679140210151672,"124":0.0005679475725628436,"125":0.3751636743545532,"126":0.5872982144355774,"127":0.1925053745508194,"128":0.1260974258184433,"129":0.27318519353866577,"130":0.6144067645072937,"131":0.152296781539917,"132":-0.44403743743896484,"133":-0.2956383228302002,"134":-0.18832942843437195,"135":0.030396144837141037,"136":0.32847440242767334,"137":0.2196141630411148,"138":0.23385275900363922,"139":0.20163549482822418,"140":-0.4217017590999603,"141":-0.5449413657188416,"142":-0.5402693152427673,"143":-1.0533980131149292,"144":-0.2217075675725937,"145":0.0972684770822525,"146":0.18264350295066833,"147":0.09211672842502594,"148":0.0162851233035326,"149":0.2123059630393982,"150":0.06604597717523575,"151":-0.8278884887695312,"152":-1.4683347940444946,"153":-1.979785442352295,"154":-1.494515299797058,"155":-1.016851782798767,"156":-0.21428675949573517,"157":-0.7353448271751404,"158":-0.3349372446537018,"159":-0.06682191044092178,"160":-9.770508766174316,"161":-0.04389037564396858,"162":-2.1370394229888916,"163":-1.3877694606781006,"164":-3.3616933822631836,"165":-1.0174018144607544,"166":0.5332374572753906,"167":-1.3662936687469482,"168":-1.5658633708953857,"169":-1.1723601818084717,"170":8.173783302307129,"171":-6.739345550537109,"172":0.7626953721046448,"173":-6.386587619781494,"174":4.774853706359863,"175":-1.9384942054748535,"176":-7.558034896850586,"177":5.174586296081543,"178":-0.23279637098312378,"179":-6.935255527496338,"180":-8.17988395690918,"181":-1.7598806619644165,"182":3.853437662124634,"183":-4.107944965362549,"184":-4.629467010498047,"185":-10.935327529907227,"186":-7.1597700119018555,"187":-5.145680904388428,"188":-8.265284538269043,"189":-9.980846405029297,"190":11.027361869812012,"191":-13.181778907775879,"192":-5.746923446655273,"193":-7.839575290679932,"194":-3.907343864440918,"195":9.34203052520752,"196":0.2705870270729065,"197":-2.1225905418395996,"198":-4.093014240264893,"199":3.164264440536499}},"11":{"bias":14.675472259521484,"weights":{"0":-0.19817616045475006,"1":0.11209076642990112,"2":-0.05958457291126251,"3":0.15288065373897552,"4":0.06149900704622269,"5":-0.030055776238441467,"6":-0.14616787433624268,"7":-0.11461136490106583,"8":0.09864472597837448,"9":-0.0969892144203186,"10":-0.356713205575943,"11":-0.25102904438972473,"12":-0.5010625123977661,"13":-0.2920885980129242,"14":-0.09345357865095139,"15":-0.1738732010126114,"16":-0.3756939470767975,"17":-0.645098090171814,"18":-0.4590297043323517,"19":-0.23583103716373444,"20":-0.6836457252502441,"21":-0.687110424041748,"22":-0.57853764295578,"23":-0.3769078254699707,"24":-0.6503856182098389,"25":-0.7480922341346741,"26":-0.7240623235702515,"27":-0.7056400179862976,"28":-0.890930712223053,"29":-0.45432552695274353,"30":-0.3219204246997833,"31":-0.9154372811317444,"32":-0.637510359287262,"33":-0.6419253945350647,"34":-0.5196138620376587,"35":-0.6907079219818115,"36":-0.49020490050315857,"37":-0.8609321713447571,"38":-0.9508419632911682,"39":-0.3726678192615509,"40":-0.13104559481143951,"41":-0.3279406726360321,"42":-0.7012078762054443,"43":-0.7259946465492249,"44":-0.6518281698226929,"45":-0.49020397663116455,"46":-0.4253421425819397,"47":-0.44899874925613403,"48":-0.43334293365478516,"49":-0.3439619541168213,"50":-0.3151487410068512,"51":-0.565712034702301,"52":-0.8298667073249817,"53":-0.7949591875076294,"54":-0.5709595680236816,"55":-0.23568613827228546,"56":-0.30559980869293213,"57":-0.5203067660331726,"58":-0.32408395409584045,"59":-0.29722627997398376,"60":-0.022965282201766968,"61":-0.5030227899551392,"62":-0.8114017844200134,"63":-1.0139355659484863,"64":-0.4539054036140442,"65":-0.26812583208084106,"66":-0.42029422521591187,"67":-0.15147419273853302,"68":-0.21826708316802979,"69":0.06784901767969131,"70":0.17779025435447693,"71":-0.5397496223449707,"72":-1.0390844345092773,"73":-1.0846067667007446,"74":-0.6720491051673889,"75":-0.16747932136058807,"76":-0.038710638880729675,"77":-0.4824466109275818,"78":-0.11745531111955643,"79":-0.14970526099205017,"80":-0.18681903183460236,"81":-0.34074166417121887,"82":-0.976647675037384,"83":-0.7747594118118286,"84":-0.5745163559913635,"85":0.024792635813355446,"86":-0.01859412156045437,"87":-0.1405227929353714,"88":-0.37414368987083435,"89":0.004252979531884193,"90":0.28595641255378723,"91":-0.04433721676468849,"92":-0.9660064578056335,"93":-0.813048779964447,"94":-0.3571193516254425,"95":0.12231943011283875,"96":-0.16188158094882965,"97":-0.051444560289382935,"98":-0.04022136330604553,"99":0.05603107437491417,"100":0.2203012853860855,"101":-0.38910308480262756,"102":-1.0023137331008911,"103":-0.7431737184524536,"104":-0.5433461666107178,"105":-0.019055083394050598,"106":0.09712520241737366,"107":-0.10700038820505142,"108":-0.03777221590280533,"109":0.30389663577079773,"110":-0.07093747705221176,"111":0.06024358049035072,"112":-0.9669806361198425,"113":-0.6877616047859192,"114":-0.4230439364910126,"115":0.16545970737934113,"116":-0.14839592576026917,"117":0.15711085498332977,"118":-0.0577855184674263,"119":-0.03387105464935303,"120":0.3487347960472107,"121":0.2893083691596985,"122":-0.5274612903594971,"123":-0.5798581838607788,"124":0.15082287788391113,"125":0.12300141155719757,"126":0.6873863935470581,"127":0.21687813103199005,"128":0.2446015179157257,"129":0.6359718441963196,"130":0.8540033102035522,"131":0.417397677898407,"132":-0.4251476228237152,"133":-0.49886012077331543,"134":-0.23774997889995575,"135":0.22480127215385437,"136":0.26472172141075134,"137":0.2830454409122467,"138":0.32206112146377563,"139":0.43678760528564453,"140":0.3365824222564697,"141":-0.4224569499492645,"142":-0.4857174754142761,"143":-0.5436004996299744,"144":-0.05304490029811859,"145":0.5599827170372009,"146":0.4832248389720917,"147":0.18745210766792297,"148":0.2902238070964813,"149":0.7133106589317322,"150":0.9284729361534119,"151":-1.0363999605178833,"152":-1.4108203649520874,"153":-1.4461016654968262,"154":-0.8196559548377991,"155":-1.0560556650161743,"156":-0.17943717539310455,"157":0.2492164969444275,"158":0.2268775850534439,"159":1.0117859840393066,"160":0.2665210962295532,"161":-1.4871506690979004,"162":-0.6256274580955505,"163":-1.1625148057937622,"164":-1.3496085405349731,"165":-0.8715227842330933,"166":-0.9346436858177185,"167":0.6207011938095093,"168":-0.04871790483593941,"169":-0.6946923136711121,"170":9.906389236450195,"171":-1.913004755973816,"172":4.21282958984375,"173":-4.304034233093262,"174":-5.92841911315918,"175":0.06214889511466026,"176":-4.008758544921875,"177":-0.005461233202368021,"178":-1.5629758834838867,"179":-3.3812570571899414,"180":-13.838766098022461,"181":-15.256877899169922,"182":-5.278451919555664,"183":3.2361505031585693,"184":0.3587956428527832,"185":-7.854121685028076,"186":-8.139413833618164,"187":-6.693111419677734,"188":-7.769899368286133,"189":-9.673768043518066,"190":-1.5046433210372925,"191":5.657936096191406,"192":-10.788229942321777,"193":-7.737023830413818,"194":-4.182735919952393,"195":-1.9393572807312012,"196":-2.804551601409912,"197":-5.514822483062744,"198":0.2629116475582123,"199":-1.6283469200134277}},"12":{"bias":-55.276611328125,"weights":{"0":-0.14621199667453766,"1":-0.06554456800222397,"2":0.1895015835762024,"3":0.11966245621442795,"4":-0.14992760121822357,"5":0.198505699634552,"6":0.1611190289258957,"7":-0.07031199336051941,"8":-0.06423196941614151,"9":-0.034615449607372284,"10":-6.059048175811768,"11":-7.806338787078857,"12":-7.603873252868652,"13":-5.277349948883057,"14":-0.961841344833374,"15":-5.067915439605713,"16":-9.0574951171875,"17":-8.70600414276123,"18":-8.47277545928955,"19":-6.789614200592041,"20":-10.545243263244629,"21":-13.548600196838379,"22":-12.793447494506836,"23":-11.545719146728516,"24":-10.391288757324219,"25":-11.90609073638916,"26":-13.029802322387695,"27":-13.581645965576172,"28":-14.567667961120605,"29":-12.443171501159668,"30":-14.868400573730469,"31":-16.105066299438477,"32":-12.600286483764648,"33":-12.493602752685547,"34":-13.300461769104004,"35":-14.155864715576172,"36":-14.44520092010498,"37":-16.01462745666504,"38":-17.502277374267578,"39":-16.342531204223633,"40":-24.6732177734375,"41":-19.532299041748047,"42":-17.83349609375,"43":-16.586881637573242,"44":-16.57089614868164,"45":-19.6143741607666,"46":-21.271282196044922,"47":-21.992036819458008,"48":-23.66356658935547,"49":-29.336498260498047,"50":-41.0682258605957,"51":-32.055904388427734,"52":-21.24561882019043,"53":-22.19411849975586,"54":-25.436643600463867,"55":-33.55084228515625,"56":-31.833667755126953,"57":-35.708160400390625,"58":-38.70549011230469,"59":-43.03242874145508,"60":-59.21570587158203,"61":-47.721343994140625,"62":-38.140838623046875,"63":-40.198974609375,"64":-39.32512283325195,"65":-34.25407028198242,"66":-43.78978729248047,"67":-47.57360076904297,"68":-45.34504318237305,"69":-44.25856018066406,"70":-19.42692756652832,"71":-60.71098709106445,"72":-68.93798828125,"73":-60.2869987487793,"74":-58.82271194458008,"75":-45.839935302734375,"76":-52.26218795776367,"77":-55.689205169677734,"78":-61.733646392822266,"79":-35.34592056274414,"80":30.71079444885254,"81":5.693465709686279,"82":-9.975462913513184,"83":-27.758880615234375,"84":11.846433639526367,"85":10.950034141540527,"86":14.541255950927734,"87":23.65369987487793,"88":16.141433715820312,"89":35.09743881225586,"90":27.326831817626953,"91":22.29115104675293,"92":-0.8799363970756531,"93":-21.09313201904297,"94":15.918554306030273,"95":29.226709365844727,"96":27.772842407226562,"97":44.63114929199219,"98":38.23957443237305,"99":60.87700271606445,"100":16.147783279418945,"101":13.862181663513184,"102":-4.108240604400635,"103":-11.028026580810547,"104":-0.5112913846969604,"105":-2.620150327682495,"106":5.41417932510376,"107":23.01056480407715,"108":35.31290817260742,"109":47.633365631103516,"110":15.83562183380127,"111":21.07244300842285,"112":-1.6508305072784424,"113":-18.55599021911621,"114":-30.17750358581543,"115":-33.57720947265625,"116":-19.87872886657715,"117":13.324929237365723,"118":42.4801025390625,"119":39.904197692871094,"120":21.78005599975586,"121":28.804092407226562,"122":17.350786209106445,"123":-25.462940216064453,"124":-42.38837814331055,"125":-38.25678634643555,"126":-20.99504852294922,"127":6.261663436889648,"128":40.467891693115234,"129":26.671428680419922,"130":18.075218200683594,"131":24.078704833984375,"132":21.469297409057617,"133":-17.84067153930664,"134":-34.20583724975586,"135":-19.3123722076416,"136":-2.23008131980896,"137":17.707773208618164,"138":29.1466007232666,"139":26.07790756225586,"140":8.023094177246094,"141":7.012005805969238,"142":1.4946714639663696,"143":-13.055638313293457,"144":-15.974666595458984,"145":-3.2699460983276367,"146":2.255838394165039,"147":2.359818458557129,"148":9.889142990112305,"149":11.40931510925293,"150":-6.209724426269531,"151":-14.865750312805176,"152":-1.639477014541626,"153":-4.832193851470947,"154":-1.4005087614059448,"155":10.119574546813965,"156":-7.797980308532715,"157":-0.09176351130008698,"158":-5.020987510681152,"159":3.3315396308898926,"160":-1.3711799383163452,"161":-7.323513984680176,"162":9.57383918762207,"163":-7.44507360458374,"164":4.880016326904297,"165":-2.705108880996704,"166":1.9152685403823853,"167":-10.401206016540527,"168":-15.567113876342773,"169":-2.8489179611206055,"170":-4.940374851226807,"171":3.196204662322998,"172":-1.7380375862121582,"173":6.606761932373047,"174":5.061145305633545,"175":-5.794522762298584,"176":0.32376962900161743,"177":-11.84791088104248,"178":4.304736137390137,"179":0.02235790155827999,"180":1.2300833463668823,"181":-9.346240043640137,"182":3.291147232055664,"183":-0.3525799512863159,"184":-1.6505379676818848,"185":-6.529629707336426,"186":-10.557321548461914,"187":-2.8080670833587646,"188":-9.471600532531738,"189":2.4615426063537598,"190":-21.460336685180664,"191":-19.289594650268555,"192":-9.465487480163574,"193":-10.04591178894043,"194":-3.537109851837158,"195":-8.04498291015625,"196":3.795344829559326,"197":-5.415521144866943,"198":-20.48853874206543,"199":-12.34376335144043}},"13":{"bias":33.636898040771484,"weights":{"0":-0.04922662302851677,"1":0.19823381304740906,"2":-0.03849319368600845,"3":0.18557612597942352,"4":0.16404488682746887,"5":-0.11048069596290588,"6":0.13318884372711182,"7":-0.1026262491941452,"8":0.14366324245929718,"9":0.024098733440041542,"10":-0.5051844120025635,"11":-0.671220064163208,"12":-0.6952335238456726,"13":-0.23055489361286163,"14":-0.06538016349077225,"15":-0.4040524959564209,"16":-0.7068612575531006,"17":-0.7218602895736694,"18":-0.6084476113319397,"19":-0.4918232560157776,"20":-0.9756463766098022,"21":-1.1874802112579346,"22":-1.1807012557983398,"23":-0.5505478978157043,"24":-0.6899898052215576,"25":-1.0798428058624268,"26":-1.3751379251480103,"27":-1.322378158569336,"28":-1.3981791734695435,"29":-0.8038871884346008,"30":-0.5051599144935608,"31":-1.0564590692520142,"32":-1.133892297744751,"33":-1.3724884986877441,"34":-0.866005003452301,"35":-0.8826349377632141,"36":-1.0312495231628418,"37":-1.1869593858718872,"38":-1.2722216844558716,"39":-0.7001160979270935,"40":-0.5186259150505066,"41":-0.8026623129844666,"42":-1.3372021913528442,"43":-1.055140495300293,"44":-0.8440285921096802,"45":-0.4713212847709656,"46":-0.8828616142272949,"47":-0.6044598817825317,"48":-0.963549017906189,"49":-0.4932924807071686,"50":-0.5273429751396179,"51":-0.7957744598388672,"52":-1.0866059064865112,"53":-1.5131752490997314,"54":-0.8417894840240479,"55":-0.810541033744812,"56":-0.669694721698761,"57":-0.9967107176780701,"58":-0.9272021651268005,"59":-0.30222612619400024,"60":0.09668728709220886,"61":-0.7474132180213928,"62":-1.3273279666900635,"63":-1.5647917985916138,"64":-0.4756854772567749,"65":-0.22344167530536652,"66":-0.45996806025505066,"67":-0.3404635787010193,"68":-0.46637481451034546,"69":-0.08083214610815048,"70":-0.17939801514148712,"71":-0.6614577770233154,"72":-1.536366581916809,"73":-1.7530920505523682,"74":-1.1272653341293335,"75":-0.4905671179294586,"76":-0.2644791305065155,"77":-0.5335749983787537,"78":-0.6341520547866821,"79":-0.1842683106660843,"80":-0.33120524883270264,"81":-0.38493475317955017,"82":-1.406043291091919,"83":-1.6675443649291992,"84":-0.9329013228416443,"85":-0.680835485458374,"86":-0.37237048149108887,"87":-0.5117492079734802,"88":-0.610733151435852,"89":-0.20685401558876038,"90":0.46428096294403076,"91":-0.20771826803684235,"92":-1.3819539546966553,"93":-1.4447823762893677,"94":-0.7898150086402893,"95":-0.4893517792224884,"96":-0.47368425130844116,"97":-0.5227754712104797,"98":-0.1958584040403366,"99":-0.4115833640098572,"100":0.48317134380340576,"101":-0.7109256386756897,"102":-1.2165088653564453,"103":-1.6543347835540771,"104":-0.8384674191474915,"105":-0.19200296700000763,"106":-0.17252379655838013,"107":-0.1886889636516571,"108":0.009647758677601814,"109":0.11194606125354767,"110":0.16069018840789795,"111":-0.059051938354969025,"112":-1.5096807479858398,"113":-1.5142837762832642,"114":-0.9609687328338623,"115":-0.19136255979537964,"116":-0.41904008388519287,"117":-0.3741770088672638,"118":-0.656461775302887,"119":-0.3147323727607727,"120":0.09747564047574997,"121":-0.4082646667957306,"122":-0.8245724439620972,"123":-1.2286831140518188,"124":-0.689884603023529,"125":-0.10253631323575974,"126":0.19976383447647095,"127":-0.34703347086906433,"128":-0.36563029885292053,"129":0.149357870221138,"130":0.7643744349479675,"131":-0.3210422694683075,"132":-1.2404662370681763,"133":-1.11247980594635,"134":-1.5780699253082275,"135":-0.28819742798805237,"136":-0.45508480072021484,"137":-0.6904810667037964,"138":-0.3967711925506592,"139":0.3971540033817291,"140":-0.26956358551979065,"141":-0.6844897270202637,"142":-2.0802385807037354,"143":-3.284651756286621,"144":-3.2756409645080566,"145":-0.7271090745925903,"146":-1.890590786933899,"147":-2.60990047454834,"148":-1.4976834058761597,"149":-1.2127107381820679,"150":0.22588223218917847,"151":-0.4845658540725708,"152":0.6965855956077576,"153":-3.324258804321289,"154":-5.02008581161499,"155":-2.330082893371582,"156":-2.63169002532959,"157":-1.9804065227508545,"158":-3.1326277256011963,"159":-3.4859554767608643,"160":-11.120927810668945,"161":-3.0479352474212646,"162":-2.2427706718444824,"163":0.3938674032688141,"164":-4.78474760055542,"165":-0.8492836952209473,"166":0.35494348406791687,"167":-3.9870617389678955,"168":-4.767065525054932,"169":-9.992088317871094,"170":-2.873655319213867,"171":-9.984950065612793,"172":-17.481916427612305,"173":2.7296383380889893,"174":5.134086608886719,"175":-6.704868316650391,"176":-7.259816646575928,"177":-7.964102745056152,"178":-9.595945358276367,"179":9.345039367675781,"180":-0.8197533488273621,"181":5.517678260803223,"182":-8.264033317565918,"183":-14.49199104309082,"184":-7.520345687866211,"185":-14.406828880310059,"186":-13.085436820983887,"187":3.0726699829101562,"188":-16.790687561035156,"189":-2.244443416595459,"190":-12.296488761901855,"191":-3.8923709392547607,"192":-0.12851445376873016,"193":-8.919844627380371,"194":-22.447969436645508,"195":-8.961194038391113,"196":-5.719356536865234,"197":6.5415120124816895,"198":29.196895599365234,"199":8.646809577941895}},"14":{"bias":-0.9062430262565613,"weights":{"0":-0.10563632845878601,"1":-0.08589503914117813,"2":-0.136310875415802,"3":0.16015490889549255,"4":0.025485118851065636,"5":-0.18052880465984344,"6":-0.12004507333040237,"7":0.1323421597480774,"8":0.014465647749602795,"9":-0.06364396214485168,"10":0.0029523316770792007,"11":0.2979402244091034,"12":-0.07524523138999939,"13":0.05184071511030197,"14":0.151859849691391,"15":0.27446576952934265,"16":0.030965188518166542,"17":0.2561076283454895,"18":0.3502342998981476,"19":0.1973876804113388,"20":0.0902823880314827,"21":0.1463490128517151,"22":0.03903849050402641,"23":0.11680977046489716,"24":0.18022163212299347,"25":0.14815685153007507,"26":0.4632887542247772,"27":0.25884106755256653,"28":0.20936952531337738,"29":0.25980237126350403,"30":0.20720410346984863,"31":0.18554852902889252,"32":0.1098598837852478,"33":-0.09040071070194244,"34":0.06301552057266235,"35":-0.09935028851032257,"36":-0.1497812271118164,"37":0.03652394562959671,"38":0.33839181065559387,"39":0.31171587109565735,"40":0.4054810404777527,"41":0.7559879422187805,"42":0.4834437072277069,"43":0.20203980803489685,"44":-0.09891562163829803,"45":-0.015114475041627884,"46":0.2353934645652771,"47":0.05250241979956627,"48":0.37856394052505493,"49":0.2661099135875702,"50":0.7357810139656067,"51":0.4585328698158264,"52":0.7361359000205994,"53":0.5482362508773804,"54":0.046650469303131104,"55":0.3818025290966034,"56":0.33183762431144714,"57":0.4761878550052643,"58":0.5141247510910034,"59":0.3059776723384857,"60":0.5815012454986572,"61":0.4667001962661743,"62":0.022652387619018555,"63":0.5297183394432068,"64":0.1886160969734192,"65":0.2562951445579529,"66":0.3879542350769043,"67":0.920504629611969,"68":0.4612691104412079,"69":0.4921548366546631,"70":0.7185775637626648,"71":0.44118618965148926,"72":0.35677820444107056,"73":0.6674676537513733,"74":0.25531473755836487,"75":0.861667275428772,"76":0.8890810012817383,"77":0.5831978917121887,"78":0.6687066555023193,"79":0.719629168510437,"80":0.657709002494812,"81":0.5615189671516418,"82":0.8319345116615295,"83":1.072265625,"84":0.7004519104957581,"85":0.9445462226867676,"86":0.9907266497612,"87":0.610091507434845,"88":0.8209692239761353,"89":0.7827194333076477,"90":0.33674541115760803,"91":0.765006422996521,"92":0.8409613966941833,"93":1.089287281036377,"94":0.661501944065094,"95":1.2801458835601807,"96":0.8682591319084167,"97":0.38948753476142883,"98":0.3855617642402649,"99":0.5065758228302002,"100":0.3752198815345764,"101":1.1101504564285278,"102":0.6403228044509888,"103":1.1677467823028564,"104":0.24777208268642426,"105":0.047645650804042816,"106":0.5936899781227112,"107":0.3253409266471863,"108":0.37074014544487,"109":0.18930332362651825,"110":-1.0431580543518066,"111":0.49653759598731995,"112":0.9984276294708252,"113":1.6563080549240112,"114":-0.13339826464653015,"115":-0.37900346517562866,"116":-0.6251360177993774,"117":-0.1438581496477127,"118":0.7101405262947083,"119":-1.0432575941085815,"120":-1.7606396675109863,"121":-0.5327600836753845,"122":0.835571825504303,"123":1.2303684949874878,"124":-0.7600806951522827,"125":-0.608166515827179,"126":-1.0444902181625366,"127":-1.0818333625793457,"128":0.04472574219107628,"129":-2.278355836868286,"130":-1.9569026231765747,"131":0.1356533020734787,"132":0.4799671173095703,"133":0.4798823893070221,"134":-0.7069123387336731,"135":-1.1631073951721191,"136":-0.3732626140117645,"137":-0.3774919807910919,"138":-0.5207614302635193,"139":-2.386080026626587,"140":-0.3174420893192291,"141":-0.3010574281215668,"142":-0.08883976191282272,"143":0.36224034428596497,"144":-0.22024089097976685,"145":-0.9035680890083313,"146":-0.8209467530250549,"147":-1.0330235958099365,"148":0.17026741802692413,"149":-1.8879536390304565,"150":-1.6140059232711792,"151":-0.3204260468482971,"152":0.11696503311395645,"153":0.5803506374359131,"154":0.3252718448638916,"155":-1.0693684816360474,"156":-0.508102536201477,"157":-0.7973245978355408,"158":0.13777749240398407,"159":-1.631887435913086,"160":-1.4706138372421265,"161":-2.2406110763549805,"162":-0.6140239238739014,"163":0.19530831277370453,"164":-0.0793275311589241,"165":-0.38890740275382996,"166":-1.1772500276565552,"167":-1.2887295484542847,"168":-0.2629159390926361,"169":-2.1855456829071045,"170":-2.0214855670928955,"171":-1.770947813987732,"172":-0.22492745518684387,"173":-1.848613977432251,"174":-1.2048156261444092,"175":-0.0487656332552433,"176":0.1503089964389801,"177":-0.9726051092147827,"178":-0.6011191010475159,"179":-1.7069867849349976,"180":-1.1854910850524902,"181":-0.8523843288421631,"182":1.1963403224945068,"183":1.5713961124420166,"184":-0.28611961007118225,"185":-0.14210712909698486,"186":-1.3122121095657349,"187":-1.548527479171753,"188":0.21824374794960022,"189":-0.4831007421016693,"190":-1.7711752653121948,"191":-1.9120649099349976,"192":1.7057056427001953,"193":-1.119484543800354,"194":-1.3270832300186157,"195":0.20917178690433502,"196":0.20557650923728943,"197":0.6700480580329895,"198":0.28107282519340515,"199":-0.9189625382423401}},"15":{"bias":0.0038978694938123226,"weights":{"0":-0.005115593783557415,"1":-0.1433805525302887,"2":-0.0402519591152668,"3":-0.19780240952968597,"4":-0.1614903211593628,"5":0.08572247624397278,"6":0.0660349428653717,"7":-0.06987002491950989,"8":0.1022757887840271,"9":0.026674265041947365,"10":-0.190652534365654,"11":0.005685077514499426,"12":-0.21007373929023743,"13":0.10871667414903641,"14":0.1294470727443695,"15":-0.12841223180294037,"16":-0.12868376076221466,"17":0.09631092846393585,"18":-0.008284440264105797,"19":-0.06434813886880875,"20":-0.14284691214561462,"21":-0.13806521892547607,"22":0.16141311824321747,"23":-0.11234806478023529,"24":0.10012031346559525,"25":0.08862520009279251,"26":0.12249793857336044,"27":-0.2143707275390625,"28":-0.19150997698307037,"29":-0.029276419430971146,"30":-0.05557248741388321,"31":-0.0004904510569758713,"32":-0.23620714247226715,"33":-0.1517205834388733,"34":-0.0684022456407547,"35":-0.014027015306055546,"36":-0.2047944813966751,"37":0.10040082037448883,"38":0.031077628955245018,"39":0.092768095433712,"40":-0.0828719362616539,"41":0.1567813605070114,"42":-0.14229010045528412,"43":-0.018172884359955788,"44":0.07608579099178314,"45":0.09679272025823593,"46":-0.1848793625831604,"47":0.0952741801738739,"48":0.06094254553318024,"49":0.10390876233577728,"50":0.19632473587989807,"51":0.18849818408489227,"52":-0.11796143651008606,"53":-0.23911044001579285,"54":-0.10704715549945831,"55":0.04899989813566208,"56":-0.20163896679878235,"57":-0.016681674867868423,"58":0.09183147549629211,"59":-0.10514908283948898,"60":0.11093251407146454,"61":0.09211982786655426,"62":-0.17293550074100494,"63":-0.17824143171310425,"64":-0.19743111729621887,"65":0.015556121245026588,"66":0.05770287290215492,"67":-0.0538666695356369,"68":0.13319116830825806,"69":-0.11776719242334366,"70":-0.12934596836566925,"71":-0.023548172786831856,"72":0.1292732208967209,"73":0.12517842650413513,"74":0.09419609606266022,"75":-0.02579592354595661,"76":-0.17455577850341797,"77":0.1233767494559288,"78":-0.1068933829665184,"79":-0.1056777760386467,"80":0.21029381453990936,"81":0.005278634838759899,"82":-0.10700211673974991,"83":-0.1421876847743988,"84":-0.025021173059940338,"85":-0.14643657207489014,"86":-0.0958675965666771,"87":-0.16783401370048523,"88":0.1768781989812851,"89":-0.05569945648312569,"90":0.17701365053653717,"91":0.1663241982460022,"92":-0.13768203556537628,"93":-0.08777514845132828,"94":0.16147921979427338,"95":0.01874713972210884,"96":-0.1790267378091812,"97":-0.030835138633847237,"98":0.11315697431564331,"99":0.1731913685798645,"100":-0.06093887984752655,"101":0.04198131337761879,"102":-0.17256708443164825,"103":0.10000750422477722,"104":-0.0566231906414032,"105":-0.21742437779903412,"106":-0.2475094199180603,"107":0.07053692638874054,"108":0.018927674740552902,"109":-0.011433123610913754,"110":0.015847979113459587,"111":0.05013847351074219,"112":0.11864633858203888,"113":0.021502595394849777,"114":-0.09787815064191818,"115":0.04520301893353462,"116":-0.2904007136821747,"117":-0.29527953267097473,"118":0.038526151329278946,"119":-0.2688438594341278,"120":-0.10791146010160446,"121":-0.05855988338589668,"122":-0.04770306497812271,"123":0.2640703618526459,"124":0.007566223386675119,"125":-0.13885918259620667,"126":-0.2771413326263428,"127":0.026201976463198662,"128":-0.27676090598106384,"129":-0.002920416183769703,"130":-0.2705620527267456,"131":-0.021209297701716423,"132":0.0017367321997880936,"133":0.17822523415088654,"134":0.1001473218202591,"135":-0.23038579523563385,"136":-0.4214453399181366,"137":-0.058657657355070114,"138":0.15596787631511688,"139":-0.15581919252872467,"140":0.05896977707743645,"141":0.32695096731185913,"142":-0.10629114508628845,"143":0.051330432295799255,"144":-0.09759097546339035,"145":-0.43123841285705566,"146":-0.7517687082290649,"147":-0.49430808424949646,"148":-0.3268145024776459,"149":-0.7430328726768494,"150":-0.20303352177143097,"151":-0.5404973030090332,"152":-0.2818576693534851,"153":-0.18871034681797028,"154":-0.3916931450366974,"155":-0.36260029673576355,"156":-0.751537024974823,"157":-0.4813089072704315,"158":0.15786206722259521,"159":-0.6224617958068848,"160":-0.8762128949165344,"161":-1.0427491664886475,"162":-0.8907599449157715,"163":-0.22576788067817688,"164":-0.8011159896850586,"165":-0.9458892941474915,"166":0.625724732875824,"167":0.23101547360420227,"168":-0.040431056171655655,"169":-0.4999578595161438,"170":-1.134619951248169,"171":-2.0528855323791504,"172":-2.4712791442871094,"173":-2.6880314350128174,"174":-0.12093169242143631,"175":-0.4535280168056488,"176":0.705976665019989,"177":0.9631341099739075,"178":0.24021399021148682,"179":0.6809803247451782,"180":1.3265334367752075,"181":0.13331949710845947,"182":-1.8049575090408325,"183":-1.041595458984375,"184":0.008683363907039165,"185":1.3426095247268677,"186":1.3509371280670166,"187":1.506142258644104,"188":1.7581470012664795,"189":1.124075174331665,"190":-0.17631496489048004,"191":0.6080469489097595,"192":-1.0254135131835938,"193":-0.46657469868659973,"194":-0.3298812508583069,"195":-1.2017340660095215,"196":-0.9594395160675049,"197":-0.09363264590501785,"198":-0.7241787314414978,"199":-0.2670934796333313}},"16":{"bias":-0.7765079736709595,"weights":{"0":0.10357292741537094,"1":0.05961202457547188,"2":0.14677780866622925,"3":0.025973958894610405,"4":-0.025532996281981468,"5":-0.07357096672058105,"6":0.1279219686985016,"7":0.08032843470573425,"8":-0.14933618903160095,"9":0.1074671819806099,"10":1.0080583095550537,"11":0.9324302077293396,"12":1.34650456905365,"13":0.8432918190956116,"14":0.19213838875293732,"15":0.8145456314086914,"16":1.4577527046203613,"17":1.2544587850570679,"18":0.8658040165901184,"19":0.9361834526062012,"20":1.0022107362747192,"21":2.2052648067474365,"22":1.8174824714660645,"23":1.5780622959136963,"24":1.7478926181793213,"25":2.015529155731201,"26":2.251322031021118,"27":1.6250578165054321,"28":1.941632628440857,"29":1.7207071781158447,"30":0.6051387190818787,"31":1.0667006969451904,"32":0.6260444521903992,"33":1.4452621936798096,"34":1.9693633317947388,"35":1.3506453037261963,"36":1.1288572549819946,"37":1.8297196626663208,"38":1.5630559921264648,"39":1.726123571395874,"40":2.4354825019836426,"41":1.9782662391662598,"42":0.8245032429695129,"43":0.35980963706970215,"44":0.650667130947113,"45":1.8274455070495605,"46":1.6162760257720947,"47":2.2039711475372314,"48":1.7745474576950073,"49":1.6961803436279297,"50":3.1839330196380615,"51":1.6610071659088135,"52":2.1823368072509766,"53":1.8160439729690552,"54":1.5752507448196411,"55":1.6462174654006958,"56":1.9974356889724731,"57":2.265766143798828,"58":2.4148192405700684,"59":1.8085894584655762,"60":0.960477888584137,"61":1.3374290466308594,"62":2.5550594329833984,"63":2.523611545562744,"64":0.7752924561500549,"65":1.1680757999420166,"66":1.62092125415802,"67":1.8940037488937378,"68":1.7780227661132812,"69":1.2454988956451416,"70":-1.4335355758666992,"71":-0.552473783493042,"72":2.4986743927001953,"73":1.6656583547592163,"74":0.5332390666007996,"75":-0.6994059085845947,"76":0.5465919375419617,"77":-0.2907390892505646,"78":-0.5423740744590759,"79":-0.4085136651992798,"80":-3.4928603172302246,"81":-1.4103912115097046,"82":1.4930152893066406,"83":2.89943265914917,"84":0.0027708509005606174,"85":-0.9292225241661072,"86":-0.865061342716217,"87":-2.0326404571533203,"88":-1.501997709274292,"89":-1.2325748205184937,"90":-3.419600486755371,"91":-2.3543150424957275,"92":0.30349600315093994,"93":3.377988576889038,"94":-0.11798474192619324,"95":-1.291309118270874,"96":-3.2472763061523438,"97":-3.4775986671447754,"98":-3.3068833351135254,"99":-3.9349544048309326,"100":-3.316500663757324,"101":-1.007977843284607,"102":-0.003965641371905804,"103":2.1524627208709717,"104":-0.8734910488128662,"105":-3.4565200805664062,"106":-1.769976258277893,"107":-2.357450485229492,"108":-1.840468406677246,"109":-3.880496025085449,"110":-4.11260461807251,"111":-1.585416316986084,"112":1.039759635925293,"113":0.5714842081069946,"114":-0.7915277481079102,"115":-1.353482961654663,"116":-1.878057599067688,"117":-2.1233394145965576,"118":-1.907010555267334,"119":-5.316634654998779,"120":-4.407073497772217,"121":-0.7178040742874146,"122":0.13584908843040466,"123":0.7231266498565674,"124":-3.1854095458984375,"125":-2.4422128200531006,"126":-2.911174774169922,"127":-2.6601595878601074,"128":-2.480761766433716,"129":-4.2215399742126465,"130":-6.239636421203613,"131":0.6103789210319519,"132":0.2966884672641754,"133":-0.5764849781990051,"134":2.353682518005371,"135":-0.7377159595489502,"136":-3.499342679977417,"137":-3.8151443004608154,"138":-2.213832139968872,"139":-2.8559353351593018,"140":-7.736640453338623,"141":0.4395466446876526,"142":-1.3883000612258911,"143":-4.163879871368408,"144":-2.207324504852295,"145":-1.5608371496200562,"146":-1.989023208618164,"147":-5.171579360961914,"148":-4.136915683746338,"149":-5.9408440589904785,"150":-4.7056989669799805,"151":2.3744513988494873,"152":3.7417986392974854,"153":2.4603328704833984,"154":-1.440119743347168,"155":-1.5202380418777466,"156":-3.3673510551452637,"157":1.4297293424606323,"158":5.657305717468262,"159":-12.784083366394043,"160":-3.7450058460235596,"161":7.438342094421387,"162":-10.07764720916748,"163":0.9466050267219543,"164":-1.505576491355896,"165":9.689021110534668,"166":4.187029838562012,"167":-8.050725936889648,"168":6.293346405029297,"169":2.3751320838928223,"170":1.1977900266647339,"171":0.2607555389404297,"172":3.10253643989563,"173":1.0631563663482666,"174":2.0472397804260254,"175":2.98717999458313,"176":-13.194718360900879,"177":14.156893730163574,"178":-5.006227493286133,"179":-4.878428936004639,"180":2.320112705230713,"181":-3.7664401531219482,"182":3.780858278274536,"183":-6.068417549133301,"184":-3.5473649501800537,"185":0.46644505858421326,"186":4.821723461151123,"187":4.143681526184082,"188":-0.18084761500358582,"189":1.466846227645874,"190":-0.34648746252059937,"191":1.4953547716140747,"192":5.32720947265625,"193":0.2828015983104706,"194":-3.905834913253784,"195":0.11115364730358124,"196":3.3739795684814453,"197":-2.8511857986450195,"198":3.186161994934082,"199":-2.0938704013824463}},"17":{"bias":-21.105934143066406,"weights":{"0":0.046378813683986664,"1":-0.1925567388534546,"2":-0.12518373131752014,"3":0.17025728523731232,"4":-0.1096358522772789,"5":-0.06577415764331818,"6":-0.14231660962104797,"7":0.02155402861535549,"8":-0.07457395642995834,"9":0.15620525181293488,"10":-2.3725452423095703,"11":-2.2338833808898926,"12":-1.7700493335723877,"13":-1.3433878421783447,"14":-0.31550654768943787,"15":-1.3492963314056396,"16":-3.031973123550415,"17":-2.9024510383605957,"18":-2.844388246536255,"19":-2.981666326522827,"20":-6.467767715454102,"21":-4.515778064727783,"22":-3.1984145641326904,"23":-3.160595178604126,"24":-3.109143018722534,"25":-4.4919514656066895,"26":-5.997297286987305,"27":-7.001768589019775,"28":-6.782946586608887,"29":-9.030745506286621,"30":-10.466806411743164,"31":-7.8104567527771,"32":-4.234429836273193,"33":-4.344507694244385,"34":-5.049249649047852,"35":-6.922354698181152,"36":-8.627351760864258,"37":-10.454639434814453,"38":-11.696718215942383,"39":-11.70212459564209,"40":-13.19708251953125,"41":-12.099305152893066,"42":-8.966886520385742,"43":-6.881736755371094,"44":-8.894737243652344,"45":-9.241056442260742,"46":-13.280562400817871,"47":-16.83683967590332,"48":-17.46316909790039,"49":-14.690467834472656,"50":-3.7745249271392822,"51":-11.037373542785645,"52":-9.038405418395996,"53":-6.585042476654053,"54":-5.335326671600342,"55":-8.035197257995605,"56":-8.00148868560791,"57":-8.157073020935059,"58":-9.978514671325684,"59":-7.2048659324646,"60":4.231601238250732,"61":-1.3784027099609375,"62":-3.6707255840301514,"63":-2.8592958450317383,"64":0.5722758173942566,"65":4.699849605560303,"66":4.157824516296387,"67":7.5175981521606445,"68":6.594769477844238,"69":8.955775260925293,"70":5.603234767913818,"71":0.5573679804801941,"72":-3.585914373397827,"73":-6.182346343994141,"74":-0.1737026423215866,"75":3.558220386505127,"76":3.6980020999908447,"77":5.20980167388916,"78":3.5271036624908447,"79":8.796162605285645,"80":5.020904064178467,"81":-0.10506162792444229,"82":-2.400625705718994,"83":-2.8766562938690186,"84":-0.2564758062362671,"85":4.022797107696533,"86":1.8495423793792725,"87":2.923593759536743,"88":3.710803508758545,"89":5.362573623657227,"90":4.1167426109313965,"91":-0.06454948335886002,"92":-4.676185607910156,"93":-4.364914417266846,"94":-0.7151662111282349,"95":1.050409197807312,"96":0.4625423550605774,"97":0.9177320599555969,"98":1.9656535387039185,"99":3.4884681701660156,"100":2.833188056945801,"101":0.1683846116065979,"102":-1.3812217712402344,"103":-1.318513035774231,"104":-1.4359101057052612,"105":0.5379840731620789,"106":0.17191460728645325,"107":1.10823655128479,"108":1.5780786275863647,"109":2.9125144481658936,"110":4.418272018432617,"111":1.2116996049880981,"112":0.9662191867828369,"113":1.0644031763076782,"114":-0.1343739628791809,"115":0.1375388205051422,"116":2.061245918273926,"117":1.9642544984817505,"118":1.3965482711791992,"119":3.209636688232422,"120":3.848956823348999,"121":3.494983673095703,"122":4.550769329071045,"123":2.4194374084472656,"124":3.173927068710327,"125":4.500323295593262,"126":3.3112831115722656,"127":1.2441734075546265,"128":4.294073581695557,"129":4.318864345550537,"130":6.761687278747559,"131":1.9606205224990845,"132":3.9792087078094482,"133":8.224217414855957,"134":6.238166809082031,"135":5.884139060974121,"136":1.5351810455322266,"137":1.3086659908294678,"138":4.902746677398682,"139":1.9873144626617432,"140":0.9039344191551208,"141":0.569555401802063,"142":-0.132286936044693,"143":5.310229778289795,"144":7.594350814819336,"145":2.8466429710388184,"146":-4.107644081115723,"147":-1.0958364009857178,"148":6.9125189781188965,"149":2.235072135925293,"150":-0.6437193155288696,"151":0.12984411418437958,"152":-2.500539779663086,"153":2.8717458248138428,"154":3.0409772396087646,"155":-1.9176284074783325,"156":-3.321352958679199,"157":0.9057819247245789,"158":8.273344993591309,"159":3.5367870330810547,"160":-3.1479063034057617,"161":-4.810626983642578,"162":-3.0631253719329834,"163":0.8115803599357605,"164":-0.2001032829284668,"165":-5.412596225738525,"166":-5.392204761505127,"167":-1.470657229423523,"168":0.6530306935310364,"169":0.6941184401512146,"170":-0.9421839118003845,"171":-2.2203516960144043,"172":-1.4959280490875244,"173":-0.2557033896446228,"174":2.8817899227142334,"175":0.7273821830749512,"176":-2.545452833175659,"177":-2.5045461654663086,"178":2.246748208999634,"179":-0.3082224726676941,"180":-1.0003796815872192,"181":1.787021279335022,"182":-1.0147569179534912,"183":-3.4400322437286377,"184":-2.4499950408935547,"185":-1.461745023727417,"186":0.2004113495349884,"187":-2.2443878650665283,"188":-2.371582269668579,"189":3.017972946166992,"190":-4.006241321563721,"191":-4.613168239593506,"192":-3.8783457279205322,"193":-2.2171220779418945,"194":-2.532071352005005,"195":-1.181384801864624,"196":-2.014197826385498,"197":-2.7609312534332275,"198":-6.436981201171875,"199":-3.5289039611816406}},"18":{"bias":5.600830078125,"weights":{"0":-0.12265413254499435,"1":0.1082448810338974,"2":0.13732419908046722,"3":-0.16672956943511963,"4":-0.15701518952846527,"5":-0.07023738324642181,"6":-0.06031640246510506,"7":-0.09667328745126724,"8":0.0896962508559227,"9":-0.08388658612966537,"10":-0.3566427528858185,"11":-0.280742883682251,"12":-0.36131274700164795,"13":-0.04037719964981079,"14":-0.21761554479599,"15":-0.23042240738868713,"16":-0.3533034026622772,"17":-0.10707303881645203,"18":-0.4102616608142853,"19":-0.2879025340080261,"20":-0.29155927896499634,"21":-0.4335877299308777,"22":-0.1379423588514328,"23":-0.04660292714834213,"24":-0.20128755271434784,"25":-0.24782545864582062,"26":-0.45767220854759216,"27":-0.47212913632392883,"28":-0.25778499245643616,"29":-0.08979357033967972,"30":-0.03188640996813774,"31":-0.24782662093639374,"32":-0.21795819699764252,"33":-0.42869746685028076,"34":-0.41887935996055603,"35":-0.4620315730571747,"36":-0.21555811166763306,"37":-0.49261966347694397,"38":-0.25083643198013306,"39":-0.41176295280456543,"40":-0.15503203868865967,"41":-0.22812487185001373,"42":-0.5342478156089783,"43":-0.3826691508293152,"44":-0.2545546591281891,"45":-0.06731270998716354,"46":-0.10022599250078201,"47":-0.3265758752822876,"48":-0.36796215176582336,"49":-0.23265789449214935,"50":-0.3892701268196106,"51":-0.3433266580104828,"52":-0.4775029122829437,"53":-0.5924232602119446,"54":-0.38089242577552795,"55":-0.2600627839565277,"56":-0.4051879346370697,"57":-0.32611963152885437,"58":-0.3646438419818878,"59":-0.20053590834140778,"60":0.22784334421157837,"61":-0.38082170486450195,"62":-0.24725832045078278,"63":-0.25087177753448486,"64":-0.26774805784225464,"65":-0.028159476816654205,"66":0.01664109341800213,"67":-0.03126610815525055,"68":0.07175402343273163,"69":0.1253516972064972,"70":0.03066195920109749,"71":-0.3329334259033203,"72":-0.38002198934555054,"73":-0.3709677457809448,"74":-0.36062484979629517,"75":-0.35877037048339844,"76":0.03317783400416374,"77":-0.011875334195792675,"78":-0.21646222472190857,"79":-0.0631633996963501,"80":-0.07235075533390045,"81":-0.21064969897270203,"82":-0.45499950647354126,"83":-0.30153194069862366,"84":-0.5111476182937622,"85":-0.25533777475357056,"86":-0.2295226752758026,"87":-0.05432385206222534,"88":-0.2439817190170288,"89":-0.19624653458595276,"90":0.09633974730968475,"91":0.06264019757509232,"92":-0.49658989906311035,"93":-0.36617010831832886,"94":-0.47022294998168945,"95":-0.07404851168394089,"96":0.07003601640462875,"97":-0.24073587357997894,"98":-0.229774609208107,"99":0.09699051082134247,"100":0.24675826728343964,"101":-0.3644140362739563,"102":-0.38810205459594727,"103":-0.40796154737472534,"104":-0.09086666256189346,"105":-0.09913603961467743,"106":0.03474835306406021,"107":-0.023955045267939568,"108":-0.18287767469882965,"109":0.0734235942363739,"110":-0.09597909450531006,"111":-0.19337525963783264,"112":-0.5259209275245667,"113":-0.4243275225162506,"114":-0.4435250163078308,"115":0.03281087055802345,"116":0.09535832703113556,"117":0.07765721529722214,"118":-0.23037010431289673,"119":0.05929243564605713,"120":-0.019418837502598763,"121":-0.029617715626955032,"122":-0.11894551664590836,"123":-0.5542230606079102,"124":-0.1770991086959839,"125":0.11253859847784042,"126":0.016726572066545486,"127":-0.2318817377090454,"128":-0.15204797685146332,"129":0.058246687054634094,"130":0.10043855756521225,"131":0.008658849634230137,"132":-0.4200727641582489,"133":-0.5835241675376892,"134":-0.19994595646858215,"135":0.0540059395134449,"136":0.19713842868804932,"137":-0.23255938291549683,"138":0.14072266221046448,"139":0.11347983777523041,"140":-0.6337510347366333,"141":-0.5526998043060303,"142":-0.5698360800743103,"143":-0.8480551242828369,"144":-0.5236877799034119,"145":0.02408931963145733,"146":0.07959508150815964,"147":-0.40545228123664856,"148":-0.21346114575862885,"149":-0.37603628635406494,"150":-0.1483219563961029,"151":-0.64365154504776,"152":-0.7127591371536255,"153":-1.3522731065750122,"154":-1.134498953819275,"155":-0.7073812484741211,"156":-0.3875942826271057,"157":-0.5706801414489746,"158":-0.8338789939880371,"159":-0.641243577003479,"160":-3.314779281616211,"161":-0.27577999234199524,"162":-0.4366176426410675,"163":-0.708791971206665,"164":-1.1887421607971191,"165":-0.7919152975082397,"166":-0.9674949645996094,"167":-1.1221914291381836,"168":-0.8383015990257263,"169":-1.4118515253067017,"170":3.5710794925689697,"171":-3.021362543106079,"172":-3.316425323486328,"173":-0.2690916359424591,"174":2.0595901012420654,"175":-1.6334137916564941,"176":-2.2517197132110596,"177":-0.5146336555480957,"178":-1.0200726985931396,"179":-0.22609663009643555,"180":0.46519407629966736,"181":2.2120559215545654,"182":-2.3513193130493164,"183":-2.849398374557495,"184":-1.4137927293777466,"185":-6.009451866149902,"186":-2.5380165576934814,"187":-0.5450735688209534,"188":-5.68101167678833,"189":-4.242318153381348,"190":1.3776098489761353,"191":-8.752543449401855,"192":-0.31775134801864624,"193":0.4564298391342163,"194":-2.011547565460205,"195":3.0625159740448,"196":0.24787941575050354,"197":-2.257401943206787,"198":0.9825344085693359,"199":0.5544713735580444}},"19":{"bias":-0.3212682604789734,"weights":{"0":-0.10082457214593887,"1":0.14366337656974792,"2":0.0221184641122818,"3":0.0642888993024826,"4":0.014373892918229103,"5":0.06595478951931,"6":-0.07036244124174118,"7":-0.1042952761054039,"8":0.17016096413135529,"9":0.1619594395160675,"10":-0.10336616635322571,"11":0.11278124153614044,"12":0.15930664539337158,"13":0.055596284568309784,"14":-0.18572522699832916,"15":0.18129447102546692,"16":-0.040432196110486984,"17":0.05737382918596268,"18":0.17487356066703796,"19":-0.16138973832130432,"20":-0.09830846637487411,"21":0.018510598689317703,"22":0.09619501978158951,"23":0.08772411197423935,"24":-0.07962602376937866,"25":0.15090332925319672,"26":-0.14355887472629547,"27":-0.09153525531291962,"28":-0.19972947239875793,"29":-0.07980407029390335,"30":-0.10727107524871826,"31":0.026885267347097397,"32":0.04688017815351486,"33":0.1443524956703186,"34":-0.1381586492061615,"35":0.06324460357427597,"36":-0.1812390238046646,"37":0.13009119033813477,"38":0.12433867901563644,"39":0.1244259774684906,"40":0.014414775185286999,"41":0.10022778809070587,"42":-0.050516288727521896,"43":-0.06449157744646072,"44":0.09870558977127075,"45":0.11797097325325012,"46":-0.006300953682512045,"47":0.009444364346563816,"48":0.016372010111808777,"49":0.19564813375473022,"50":-0.05333981662988663,"51":0.17687107622623444,"52":-0.04758445546030998,"53":-0.16616229712963104,"54":-0.1477871537208557,"55":-0.16288287937641144,